<?xml version="1.0"?>
<MethodSetup Method="MLP::MLPBNN">
  <GeneralInfo>
    <Info name="TMVA Release" value="4.2.1 [262657]"/>
    <Info name="ROOT Release" value="6.24/06 [399366]"/>
    <Info name="Creator" value="asesnic"/>
    <Info name="Date" value="Sun Jan 30 20:21:37 2022"/>
    <Info name="Host" value="Linux buildhw-x86-15.iad2.fedoraproject.org 5.15.6-200.fc35.x86_64 #1 SMP Wed Dec 1 13:41:10 UTC 2021 x86_64 x86_64 x86_64 GNU/Linux"/>
    <Info name="Dir" value="/home/asesnic/Vjezbe/Vjezbe_12"/>
    <Info name="Training events" value="2000"/>
    <Info name="TrainingTime" value="5.53614912e+01"/>
    <Info name="AnalysisType" value="Classification"/>
  </GeneralInfo>
  <Options>
    <Option name="NCycles" modified="Yes">60</Option>
    <Option name="HiddenLayers" modified="Yes">N+5</Option>
    <Option name="NeuronType" modified="Yes">tanh</Option>
    <Option name="RandomSeed" modified="No">1</Option>
    <Option name="EstimatorType" modified="No">CE</Option>
    <Option name="NeuronInputType" modified="No">sum</Option>
    <Option name="V" modified="Yes">False</Option>
    <Option name="VerbosityLevel" modified="No">Default</Option>
    <Option name="VarTransform" modified="Yes">N</Option>
    <Option name="H" modified="Yes">True</Option>
    <Option name="CreateMVAPdfs" modified="No">False</Option>
    <Option name="IgnoreNegWeightsInTraining" modified="No">False</Option>
    <Option name="TrainingMethod" modified="Yes">BFGS</Option>
    <Option name="LearningRate" modified="No">2.000000e-02</Option>
    <Option name="DecayRate" modified="No">1.000000e-02</Option>
    <Option name="TestRate" modified="Yes">5</Option>
    <Option name="EpochMonitoring" modified="No">False</Option>
    <Option name="Sampling" modified="No">1.000000e+00</Option>
    <Option name="SamplingEpoch" modified="No">1.000000e+00</Option>
    <Option name="SamplingImportance" modified="No">1.000000e+00</Option>
    <Option name="SamplingTraining" modified="No">True</Option>
    <Option name="SamplingTesting" modified="No">False</Option>
    <Option name="ResetStep" modified="No">50</Option>
    <Option name="Tau" modified="No">3.000000e+00</Option>
    <Option name="BPMode" modified="No">sequential</Option>
    <Option name="BatchSize" modified="No">-1</Option>
    <Option name="ConvergenceImprove" modified="No">1.000000e-30</Option>
    <Option name="ConvergenceTests" modified="No">-1</Option>
    <Option name="UseRegulator" modified="Yes">True</Option>
    <Option name="UpdateLimit" modified="No">10000</Option>
    <Option name="CalculateErrors" modified="No">False</Option>
    <Option name="WeightRange" modified="No">1.000000e+00</Option>
  </Options>
  <Variables NVar="4">
    <Variable VarIndex="0" Expression="ele_pt" Label="ele_pt" Title="ele_pt" Unit="" Internal="ele_pt" Type="F" Min="5.00599241e+00" Max="3.06198883e+02"/>
    <Variable VarIndex="1" Expression="scl_eta" Label="scl_eta" Title="scl_eta" Unit="" Internal="scl_eta" Type="F" Min="-2.55902076e+00" Max="2.58148694e+00"/>
    <Variable VarIndex="2" Expression="ele_fbrem" Label="ele_fbrem" Title="ele_fbrem" Unit="" Internal="ele_fbrem" Type="F" Min="-1.00000000e+00" Max="9.91997242e-01"/>
    <Variable VarIndex="3" Expression="ele_ep" Label="ele_ep" Title="ele_ep" Unit="" Internal="ele_ep" Type="F" Min="4.18868935e-04" Max="2.00000000e+01"/>
  </Variables>
  <Spectators NSpec="0"/>
  <Classes NClass="2">
    <Class Name="Signal" Index="0"/>
    <Class Name="Background" Index="1"/>
  </Classes>
  <Transformations NTransformations="1">
    <Transform Name="Normalize">
      <Selection>
        <Input NInputs="4">
          <Input Type="Variable" Label="ele_pt" Expression="ele_pt"/>
          <Input Type="Variable" Label="scl_eta" Expression="scl_eta"/>
          <Input Type="Variable" Label="ele_fbrem" Expression="ele_fbrem"/>
          <Input Type="Variable" Label="ele_ep" Expression="ele_ep"/>
        </Input>
        <Output NOutputs="4">
          <Output Type="Variable" Label="ele_pt" Expression="ele_pt"/>
          <Output Type="Variable" Label="scl_eta" Expression="scl_eta"/>
          <Output Type="Variable" Label="ele_fbrem" Expression="ele_fbrem"/>
          <Output Type="Variable" Label="ele_ep" Expression="ele_ep"/>
        </Output>
      </Selection>
      <Class ClassIndex="0">
        <Ranges>
          <Range Index="0" Min="5.9320044517517090e+00" Max="2.9407147216796875e+02"/>
          <Range Index="1" Min="-2.5590207576751709e+00" Max="2.5319814682006836e+00"/>
          <Range Index="2" Min="-1.0000000000000000e+00" Max="9.8882609605789185e-01"/>
          <Range Index="3" Min="4.1886893450282514e-04" Max="2.0000000000000000e+01"/>
        </Ranges>
      </Class>
      <Class ClassIndex="1">
        <Ranges>
          <Range Index="0" Min="5.0059924125671387e+00" Max="3.0619888305664062e+02"/>
          <Range Index="1" Min="-2.5213608741760254e+00" Max="2.5814869403839111e+00"/>
          <Range Index="2" Min="-1.0000000000000000e+00" Max="9.9199724197387695e-01"/>
          <Range Index="3" Min="3.8343772292137146e-02" Max="2.0000000000000000e+01"/>
        </Ranges>
      </Class>
      <Class ClassIndex="2">
        <Ranges>
          <Range Index="0" Min="5.0059924125671387e+00" Max="3.0619888305664062e+02"/>
          <Range Index="1" Min="-2.5590207576751709e+00" Max="2.5814869403839111e+00"/>
          <Range Index="2" Min="-1.0000000000000000e+00" Max="9.9199724197387695e-01"/>
          <Range Index="3" Min="4.1886893450282514e-04" Max="2.0000000000000000e+01"/>
        </Ranges>
      </Class>
    </Transform>
  </Transformations>
  <MVAPdfs/>
  <Weights>
    <Layout NLayers="3">
      <Layer Index="0" NNeurons="5">
        <Neuron NSynapses="9">
          -1.5366838189812364e+00 4.1254272838407173e+00 5.2557502188352290e-01 4.6969991737053389e+00 -2.2595584313927564e+00 -1.7439265661578955e+00 -9.0174021565118401e-01 1.7362935031977189e+00 -8.1208656807714263e-01 
        </Neuron>
        <Neuron NSynapses="9">
          -4.6323597142394299e-02 -1.2477671613513949e-01 -5.1476698738785842e-01 -1.3779285915635403e-01 -4.6516351579243781e-01 -6.1656251660740291e-01 5.9897830257288898e-01 -3.9107564966042763e-01 2.8674750918963618e+00 
        </Neuron>
        <Neuron NSynapses="9">
          -2.0204908510081205e+00 9.1052328519393988e-01 -2.4307523424233599e-01 -7.1483876381647193e-01 9.2035544387837931e-01 -7.9984084754412488e-02 -1.2182740048117040e+00 -1.1319940101082122e+00 1.3367351710628197e+00 
        </Neuron>
        <Neuron NSynapses="9">
          -7.0210280890543131e-01 -3.1747987415403087e+00 3.5568859235884043e-01 1.9004551646186862e-01 1.4276233506231573e+00 -8.8109216301705678e-02 -1.3898134648609428e-01 1.4945937522701815e+00 -7.5331822901474499e-01 
        </Neuron>
        <Neuron NSynapses="9">
          -1.7385684494912996e+00 9.6916754716733022e-01 -1.4691749865159838e+00 5.2714820451274687e+00 1.2653734477352967e+00 5.0159906830430867e-01 1.8753511254154946e+00 2.2464763138014271e-01 -5.5013906263996881e-01 
        </Neuron>
      </Layer>
      <Layer Index="1" NNeurons="10">
        <Neuron NSynapses="1">
          -1.6976487068834261e+00 
        </Neuron>
        <Neuron NSynapses="1">
          2.3784028460371465e+00 
        </Neuron>
        <Neuron NSynapses="1">
          1.5775512303551917e+00 
        </Neuron>
        <Neuron NSynapses="1">
          5.0127388956787380e+00 
        </Neuron>
        <Neuron NSynapses="1">
          5.6470188815545186e-01 
        </Neuron>
        <Neuron NSynapses="1">
          5.9004398116915113e-01 
        </Neuron>
        <Neuron NSynapses="1">
          -6.6933411321198871e-02 
        </Neuron>
        <Neuron NSynapses="1">
          3.0638686427050416e-01 
        </Neuron>
        <Neuron NSynapses="1">
          7.9682028262489990e-01 
        </Neuron>
        <Neuron NSynapses="1">
          -3.4778232380256635e+00 
        </Neuron>
      </Layer>
      <Layer Index="2" NNeurons="1">
        <Neuron NSynapses="0"/>
      </Layer>
    </Layout>
    <InverseHessian NElements="3025" NRows="55" NCols="55">
      <Row Index="0">
        2.1464239845765441e+01 1.5123505941476922e+00 2.5248403748201842e+01 -2.9993483565812182e+00 -7.3414799208493108e+01 2.2655382031139482e+01 4.3016174968198811e+01 -1.6497856173721374e+01 1.7481963646384602e+00 8.4198883720472129e-03 1.6808213126587498e-01 -3.5790181851808085e+00 8.2187882185514385e-03 -1.9318980895284682e+01 1.0907766811531816e+01 2.2006179066387421e+02 -6.0694090555412776e+00 1.3602585479384421e+00 3.4814321584764163e+00 5.7012892325685427e-01 -1.1168918587640668e+00 1.3299982460502453e+00 4.3607432842141023e+01 -8.2844439744413894e+00 -3.9384726422767585e+02 6.4667452688351732e+00 8.0208709898870389e-01 4.5170265981353583e-02 -1.9337483195078720e-02 -1.3666318361067887e+01 -1.0186907671532142e-01 1.0368617842899141e+02 1.0519090159572421e+01 -9.6849555539012457e+01 9.5502537546673629e+00 -8.3787714927030821e-01 1.8448905613443848e+01 8.9240568342360171e-01 -1.3210937298011210e+01 -3.7419798011976253e+00 7.4762494153463862e+01 8.0259946972271905e+00 7.6649145812227971e+02 -2.2989564141337201e+01 1.2089481825460653e+00 -4.4841689998360659e+00 -3.8883938018207595e-02 7.8444548513007987e+01 5.4156736687271394e+00 -2.4149737853469329e+01 2.1041968440761323e+01 -9.5333991880397506e-01 1.7764759539518731e+00 -5.7771488007424876e-01 8.3402882134741958e+01 
      </Row>
      <Row Index="1">
        1.5123505943557696e+00 8.9954039182508509e+00 1.8495574475458017e+01 -2.5251437028596340e+00 -3.6462370589045548e+01 2.4089651469285467e+01 1.5566738072283187e+02 7.5763438650352484e+00 1.6293814696007187e+00 7.4145604961269818e-01 -2.8486253905907334e-03 -2.7991919912086829e+01 -2.8834449852076886e-02 -1.5831451641874414e+01 1.5442068599261376e+01 -1.4120967633827425e+02 6.8070174907521732e+00 1.3066799160844984e+00 1.5833554603308055e+00 8.1275405401666523e-01 -1.3152261441792259e+01 -3.9870823215540752e-01 2.7129235048956073e+01 3.4129859193381353e+00 9.0986816760548464e+01 9.6604381113009445e+00 3.1117695983013172e-01 3.1312723993922242e-01 -3.9065331194111543e+00 1.2359453440479324e+00 -4.4481331991147466e-01 3.7626765517187188e+01 -8.9753141556586513e+00 1.0572148642496213e+01 8.5656097465045822e-01 -5.0145193941763333e-01 1.4218342588574695e+00 4.6650267507297443e+00 -5.0011348221425109e+01 -2.3760943026784114e+00 2.1566866448466662e+01 -1.5894234739205189e+00 -3.1608692422934837e+01 5.6431805907623129e+00 1.4949711711298579e+00 -2.8470869641457961e+00 -3.5777877890677883e+00 2.1467614002993333e+01 2.4025076172586988e+00 -1.6147238644989265e+01 2.3966808592420911e+01 -1.6793442779105838e+01 6.5846472367909890e+00 -6.7075741581466797e-01 3.8913532765050306e+01 
      </Row>
      <Row Index="2">
        2.5248403791567110e+01 1.8495574545355868e+01 1.3717786582810588e+03 -2.3811899752789337e+01 -3.1570137560082298e+02 4.7310480754987447e+02 4.8478567233429967e+03 -7.3168056096634064e+02 2.1976011540690550e+01 7.7802972374602337e+00 -1.3721252616031765e+00 -8.6934766117967160e+02 -2.2125071479101766e+00 -1.0810578455871197e+02 8.5094590953421232e+01 -6.9342649919671339e+02 -1.2478462995517120e+01 7.7654099401170541e+01 1.6076102718148309e+01 3.5791706280833453e+00 -4.5279995307937804e+02 -1.6626560345697352e+00 2.4763525217408124e+02 -4.2328856282916504e+01 4.7173539344090534e+02 1.6081179994717240e+02 3.5080408512624253e+01 2.2044598491736780e+00 -1.3487237163336115e+01 4.9638185195124788e+02 -6.9272592657044707e-01 6.1061102627172488e+02 8.4318275455460224e+01 -4.4317095728142272e+02 -7.9338025539456225e+01 -1.2306268205690593e+01 2.1525939841677804e+01 5.6510079453224522e+00 4.9088784032106596e+03 -2.2145729286994044e+01 5.3122675789394270e+02 -4.8648136512430739e+01 3.2787378325493719e+03 -4.6872895382135175e+02 2.6225843615048731e+01 -2.7894790044996931e+01 -1.8751165502963691e+01 -1.6173008534188471e+04 4.6849866464661936e+01 -2.7988146056728787e+01 -4.1115515219539645e+01 -1.8097493846396233e+02 5.5014188426423360e+01 -3.5891613599482710e+01 -1.5748948121855081e+04 
      </Row>
      <Row Index="3">
        -2.9993483572704651e+00 -2.5251437041474900e+00 -2.3811899767127606e+01 8.9249837551684799e+00 -9.1478132277271129e+00 -3.1982913697036938e+01 1.0139204206399327e+02 -3.1255847801394516e+01 1.8778382599497703e+00 -1.2347979183607913e-01 -1.0262581096775306e-01 4.9573888264464813e+01 -2.7707378086934437e-02 6.0179116902558993e+00 -2.2090679666250860e+01 2.6635892395259944e+01 -8.7614535399782518e+00 -3.4600802195558411e+00 -1.8817071657126230e+00 -1.5545544368448458e-01 1.9304854303036596e+01 -9.1406305825033496e-01 -3.2138393511300420e+00 -7.8597754353994391e+00 5.8028952018465390e+01 -8.9600988382298965e+00 -1.6699682862102272e+00 -1.7074738234673020e-01 1.3463276064003635e+00 -2.3024280579587966e+01 1.4396485865379982e-01 9.3106936353432257e-02 -2.7434288313133406e+00 7.6447570462981869e+00 1.1595534143911209e+01 -1.2895784327088811e-01 -2.5616944660748207e+00 -1.2253463936713338e+00 -2.0277443687482698e+01 8.5280001578867388e+00 -1.1858037661931219e+01 1.3768797186722921e+01 1.5354023121495436e+02 -3.1116555222208262e+01 8.6587400772857825e-01 2.6763328712074217e+00 1.0759944999146460e+00 2.8809112355278978e+02 -1.1652868984608579e+01 6.6605847455754166e+00 -2.0743457115795163e+01 -1.1822313667371461e+01 -5.0735906099143442e+00 1.9012400760562027e+00 3.0609207720180081e+02 
      </Row>
      <Row Index="4">
        -7.3414799219337922e+01 -3.6462370586950961e+01 -3.1570137111451811e+02 -9.1478133084280788e+00 3.1668031361439121e+03 -1.0846077924558219e+03 -5.3125042495416455e+03 4.8771134040605631e+02 -1.2122976511022843e+01 -1.5368376812654091e+01 2.5926150010979394e+00 1.3638744025450291e+02 -2.8357102982477675e+00 5.5816661605152251e+02 -3.9502533030514496e+02 1.7115666457342136e+03 5.0008480300195515e+01 -3.5741129915642553e+01 -2.9661717323607999e+01 -9.3567857389438061e+00 8.8353094422858248e+01 3.9813521676626054e+00 -1.8600698696590218e+03 -2.0813713477948019e+02 -1.5808273746166947e+03 -8.3132135064108297e+01 -1.2775410299844234e+01 1.5035623791130227e+01 2.5244485103488078e+01 9.3518880077544011e+01 8.8607269621914231e+00 -2.9907295003045951e+03 -3.7030442524148248e+02 4.6600902902935491e+02 -8.0675964888650924e+00 2.1684964592105196e+01 -5.0831325976510541e+01 -1.0493950519973650e+01 1.0513605829047119e+03 -3.1315279120222925e+00 -9.4890789917077063e+02 -9.6637351669558143e+02 -1.0447866934601831e+04 4.2906347903166898e+02 -1.0829322084822355e+00 6.5804194179265338e+01 4.2692199096360731e+01 -2.2794543344473796e+03 -7.0360071916176237e+00 1.1120722728045023e+03 -1.1644629754673394e+03 1.2505865017087508e+03 -8.6818686082591242e+01 1.6211922833618456e+01 -3.5703185237584789e+03 
      </Row>
      <Row Index="5">
        2.2655382041080092e+01 2.4089651481060201e+01 4.7310480643878816e+02 -3.1982913674065760e+01 -1.0846077932351554e+03 1.2714128505403651e+03 1.8662258368436994e+03 -1.3377791255551702e+02 1.7409997191548598e+01 2.4111909190528911e+00 -8.5338323730648424e-01 -4.9927612966661832e+02 -7.8376649287929923e-02 -2.7806706729102007e+02 4.8439440841275865e+02 -7.8755642691055027e+02 1.0005014476389624e+02 4.2835364201208904e+01 3.3680980567921253e+01 4.1521898963574335e+00 -2.0636408983808161e+02 -2.0883799532228750e-01 3.8229773151649857e+02 1.4714931804497360e+02 3.2651770662014951e+02 2.3796361176623031e+02 2.1782474723585828e+01 3.6964586280787053e+00 -1.3497443619464491e+01 1.3581270859728954e+02 -2.4747448014610551e+00 5.7638621328269437e+02 -2.4345616155923722e-01 -5.4639052521377630e+02 -2.3866150414978620e+02 -1.3118633201380298e+01 1.6220326448354214e+01 9.6490258068517818e+00 6.5185250961068263e+01 -3.1506027008473467e+01 7.1538830349052773e+01 2.8512432235810570e+02 3.9738003310080662e+03 4.3742406342120375e+01 1.1053696323270517e+01 -5.3308545297443217e+01 -2.4777752583235266e+01 -2.3994810034428638e+03 5.4279869224663123e+01 -1.8033864043092018e+02 4.3503487513846477e+02 -4.6010477418959584e+02 1.2518436005743379e+02 -2.2887093230850347e+01 -1.9959513517134747e+03 
      </Row>
      <Row Index="6">
        4.3016175084736027e+01 1.5566738084738640e+02 4.8478567116838012e+03 1.0139204230106633e+02 -5.3125042577724789e+03 1.8662258368539294e+03 7.3295218967506444e+04 -4.6300087613792111e+03 5.5611974788325682e+00 7.9928328149749362e+01 -1.1790702492802021e+01 -1.8190585948743280e+03 1.3602228753870245e+01 -9.7426210110192187e+02 -1.2715708475949316e+03 -1.9024302354144584e+04 -5.1929760164953768e+02 2.5154232657167182e+02 -9.4565638251595665e+00 2.0772394536887489e+01 -2.6862478591434792e+03 -3.8574531143049981e+01 2.6619819470424586e+03 -7.5749552948157759e+02 5.9415968568830715e+04 7.1672509375214577e+02 5.6967107545977342e+01 -2.6420635430351680e+01 -1.6460749263301119e+02 9.5938785864218448e+02 -7.5028216711980527e+00 5.7913848388462911e+03 -1.9469384765742737e+02 -7.8796828945459538e+02 9.7415016591409221e+02 -5.3585593216662623e+01 -9.5660777109372361e+00 1.6257445322584594e+01 8.6096132628549767e+03 9.7783122204715198e+01 2.4297337463346162e+03 1.9034997877831968e+03 2.5511949003236237e+04 -3.5601196516095661e+03 3.6480852823418573e+01 -5.4902800486718043e+01 -1.7485400275140867e+02 -2.8344905733971595e+04 -8.0720497173009448e+01 -6.5948903515074255e+02 -7.6749118747856528e+02 -7.7394462273196341e+03 4.3168113598012724e+01 -1.0391232159761117e+02 -1.8973484798081805e+04 
      </Row>
      <Row Index="7">
        -1.6497856181768153e+01 7.5763438552471651e+00 -7.3168056058256582e+02 -3.1255847809630968e+01 4.8771134106342362e+02 -1.3377791264756573e+02 -4.6300087622580259e+03 2.0785070334280804e+03 -3.8224034218476916e+01 2.3697740836473375e+00 2.2820356174266663e+00 2.3172813914354384e+02 1.1327599364225502e+00 -4.8951046461865189e+01 3.5671563959390784e+02 -1.4235352696839018e+02 1.6488412692968268e+02 -4.9916134659382294e+01 -1.7278638090495477e+01 -1.9776341482265861e-01 -1.8858107222965248e+02 6.1383902579720386e+00 -4.1148407275368371e+01 -5.6463966620547538e+01 3.8654033206940894e+03 -3.1189218952972442e+02 -2.7541872352567225e+01 -1.4664115182320126e+01 1.2550395880405434e+00 1.7395233617395758e+02 2.6547503299826687e+00 -1.0023429158902100e+03 -8.1516536838893245e+01 8.8608213523626284e+02 3.4792926590907155e+02 2.3753368368720004e+01 -2.1045970050934045e+01 7.3520440394842073e+00 -8.5513992263832120e+02 -2.9395933766934931e+01 -6.7356244082967930e+02 -1.3842102242661564e+01 -9.6153871242793593e+03 1.4897894700022007e+03 -2.4801511971927383e+01 2.4810497058304765e+01 8.7289972325668650e+00 2.6825566706664713e+03 3.0053946429390454e+01 -3.2647499471160202e+01 4.5336911893895558e+02 1.0641408056559642e+02 -1.7513067718999503e+02 2.2371583879588115e+01 1.9431564700099723e+03 
      </Row>
      <Row Index="8">
        1.7481963652018349e+00 1.6293814705069662e+00 2.1976011541840577e+01 1.8778382601297430e+00 -1.2122976569646072e+01 1.7409997206121027e+01 5.5611976335532667e+00 -3.8224034224148468e+01 2.0688000967669030e+01 -4.2268126570505105e-02 -1.5424134115443314e-01 -9.6176682635901667e-01 -4.0959437235358043e-01 2.1590023160479177e+00 2.3981639802420510e+01 7.1474204390888815e+01 6.4486158664731192e+00 -6.7605977579787284e+00 1.6127026392481605e-01 2.7308781499614487e-01 3.5058289390087722e+00 3.5114011715595347e-02 2.2189431049355335e+00 1.1779191616109959e+01 -6.0305240013156237e+01 1.6200998797459761e+01 -3.1693154876644485e+00 2.2631659657161926e-01 -1.0685277542852276e+00 -1.7750697734492533e+01 -5.7763955546491608e-02 3.3056685437846497e+01 -1.8960022564530362e+01 -5.1291383759393568e+01 1.7132463898451533e-01 -4.1634904382935778e-01 1.8340197175564246e+00 5.1057836230071907e-01 1.0106039948889686e+02 1.7679545563534118e+00 1.3889475985130355e+01 -5.8160353610824567e+00 1.2312211898135611e+02 -3.3210767727599887e+01 1.6636624297085568e+01 3.6115713460493681e-01 -1.3466114820398896e+00 -1.9402793195770838e+02 -2.1464263981229776e+00 -4.3741373617032613e+00 1.6805791285518421e+01 6.4270687159713349e+00 5.9011106416715009e+00 2.8792865490808595e+00 -2.0865894467834255e+02 
      </Row>
      <Row Index="9">
        8.4198886454625310e-03 7.4145604992947700e-01 7.7802972110336004e+00 -1.2347979128569199e-01 -1.5368376833539463e+01 2.4111909196412595e+00 7.9928328156641953e+01 2.3697740855568723e+00 -4.2268126919039528e-02 6.2543340846645723e-01 1.0169916872914304e-02 -4.6297440079497703e+00 4.5473676048521372e-02 -3.4287203570715974e+00 1.4925854284974420e+00 -2.7178675760182603e+01 -2.8333076252238243e-01 3.1587001698670769e-01 2.5022514025596874e-02 5.2050821068449014e-02 -8.2379682019529721e+00 -7.1613746683040796e-02 1.3115926939987276e+01 -5.0355605733486186e+00 1.3866437112617575e+02 -7.3421815464826068e-02 2.0696968068386923e-01 -1.2856319843641556e-01 -4.1419987889625187e-01 6.5689745630738647e+00 -5.7497279973735119e-02 9.7575292110776051e+00 7.8466020035650175e-03 8.9817957352849653e+00 2.4840049471622478e+00 1.1062153110965769e-01 -1.1567261342496399e-01 3.5572457024481113e-01 1.4302050953694176e+01 -1.2026557856856843e-01 1.6877225117445160e+00 4.4451805967912232e+00 -5.7181326539870199e+01 2.6260541912715780e+00 6.5781911302739637e-02 -2.6029061958501520e-01 -5.4988542425300257e-01 -6.4440490650602996e+01 2.4531087309790478e-01 -4.8914567945101428e+00 5.2287502754735673e+00 -1.3138605864356979e+01 -8.6275539265267520e-01 -1.7138188615599859e-01 -5.1960366337425995e+01 
      </Row>
      <Row Index="10">
        1.6808213121203699e-01 -2.8486254630610127e-03 -1.3721252587178672e+00 -1.0262581103532423e-01 2.5926150057964907e+00 -8.5338323796201698e-01 -1.1790702499785294e+01 2.2820356174470362e+00 -1.5424134111515464e-01 1.0169916858862371e-02 9.7321021219147583e-02 8.5180637165095530e-01 -2.0991824832138101e-02 3.7413986231888430e-01 2.6479207908105984e-02 1.8031782346025196e+00 3.3711969062005664e-01 -4.3388915862934904e-02 -3.2361200682344401e-03 -4.2482188071098544e-03 5.5622787744342039e-01 1.7865720504317312e-02 -8.6923508178523434e-01 1.3253266780616002e-01 -1.3610780492336549e+01 -8.1574100629586610e-01 -4.2164976191813253e-02 -4.3598394253361789e-02 5.5350343136064586e-02 -5.7905168697511655e-01 1.0924779162143339e-02 -2.0761720028157828e+00 4.5885816361654114e-01 -5.5204319766250016e+00 5.8174061709178204e-01 4.5374577551724200e-02 1.2796812276279829e-01 3.4643355008829535e-02 -4.6034713938136651e+00 -9.1754818621512163e-02 -4.5380434258370339e-01 -6.2523602780426391e-01 -7.6546321414958101e+00 1.2594416951021685e+00 -1.0754809249578379e-01 3.6366351361594308e-02 9.5070049863213657e-02 1.6579761209728105e+01 9.1220345760582966e-02 2.1996812667666363e-01 -2.9841537786105987e-02 1.8336906901400361e+00 -2.5224462906851058e-01 3.6914375296408508e-03 1.4212551217142432e+01 
      </Row>
      <Row Index="11">
        -3.5790182189851310e+00 -2.7991919967678150e+01 -8.6934766126101920e+02 4.9573888254438621e+01 1.3638744380877071e+02 -4.9927613056230899e+02 -1.8190586042800853e+03 2.3172813945845701e+02 -9.6176682649135148e-01 -4.6297440293154786e+00 8.5180637402796500e-01 1.0993943624978565e+03 1.9197411671199345e+00 1.1042612825753167e+02 -8.5346472912935781e+01 1.0214439201782313e+03 -1.5240928069688380e+02 -6.2206006098156770e+01 -2.1069980436184185e+01 -2.1922261647347394e+00 4.6229228237811128e+02 -2.9574394957303907e-01 -8.3123319706472103e+01 -1.7819210350717185e+01 -5.3822704118340016e+02 -2.7914317257422954e+02 -2.8825012217261246e+01 -6.2630109813309600e+00 1.3180963917323597e+01 -4.7716857991969692e+02 1.8073106524324116e+00 -1.3018780085083955e+02 -5.3716733948544459e+01 4.2754755518187073e+02 2.5521856643096544e+02 2.8028528347530726e+00 -3.9909728693453133e+00 -1.4573700328300269e+01 -3.1524745084484844e+03 4.7566421669808747e+01 -1.8395308087872172e+02 3.6871264017595273e+01 1.0966054920731409e+02 1.3847487860592082e+01 -1.7594673194488742e+01 3.4862711163637506e+01 2.1992471606236268e+01 1.2920679571720437e+04 -7.4642571186373729e+01 1.6937673748524873e+01 -6.3517500674074228e+01 8.5766189770787534e+01 -1.1233976526287597e+02 3.0072170327264757e+01 1.2652191508989030e+04 
      </Row>
      <Row Index="12">
        8.2187881400403867e-03 -2.8834450005302686e-02 -2.2125071533360416e+00 -2.7707378020498358e-02 -2.8357102885045409e+00 -7.8376652632503152e-02 1.3602228718638997e+01 1.1327599380229003e+00 -4.0959437242178159e-01 4.5473675965626591e-02 -2.0991824820175409e-02 1.9197411712474377e+00 4.3265223911248721e-02 -2.3029272064832185e-01 -7.3195508646622531e-01 -4.7812504276762482e+00 -5.6335334927643999e-01 1.6098955658851610e-02 -8.2316101026936622e-02 -2.7156118078311732e-03 2.4877407497193144e-01 2.1297499031571042e-02 1.8542468496290212e+00 -8.7230018080924765e-01 2.2714360531448637e+01 -7.0644774660468102e-01 2.3736489706493558e-02 -5.1085524838269641e-02 -3.4402709031151703e-02 -3.4003224589847603e-01 -9.6781081146851515e-03 1.6141041146862722e+00 3.6493059045501608e-01 5.1968583472281340e+00 9.6447948340119183e-01 -2.5271651945210222e-03 -2.2038812738065724e-02 -4.3676026278214861e-02 -1.1689549391937202e+01 -3.9440683746641315e-02 -1.7094631023593554e-01 1.5247760227810794e+00 6.9978130404829120e-01 4.8029691268675379e-01 -3.6239125746894890e-01 6.3785311037659193e-02 -2.2657855939154814e-02 3.6226076991140751e+01 6.5155754010290612e-02 -6.0739418932830735e-01 6.0385204093715172e-02 -2.7621857655155235e+00 -3.6712773107521646e-01 2.1945359090906891e-03 3.8849157856848407e+01 
      </Row>
      <Row Index="13">
        -1.9318980899011063e+01 -1.5831451644889590e+01 -1.0810578384215228e+02 6.0179116765824539e+00 5.5816661626602695e+02 -2.7806706721981539e+02 -9.7426210035001225e+02 -4.8951046548445447e+01 2.1590023254216657e+00 -3.4287203550085792e+00 3.7413986170922858e-01 1.1042612768574145e+02 -2.3029272246443128e-01 2.7676273002565904e+02 -2.2606766910312700e+02 8.6226532138673156e+02 -2.6966177437192528e+01 -4.7589125395770377e+00 -9.1034503529536117e+00 -2.1031363095881646e+00 4.4703190810558723e+01 1.1938909948363008e+00 -2.9772388889748527e+02 -1.6951781049553347e+01 -4.4309214765735908e+02 -2.7068176877437509e+01 -2.9262252981139909e+00 1.5244794294044510e+00 8.2428736665726703e+00 -3.5562659921867464e+01 2.3910801978535403e+00 -4.4476224138695557e+02 -8.2363283086189512e+00 -7.3928198627059118e+01 1.6919873278045998e+01 -3.0880138236341650e+00 -1.3997469060915041e+01 -7.3865876548924065e+00 3.1193486913913286e+01 7.1417383608954523e+00 -2.0088724762448231e+02 -7.6136923565329027e+01 -9.7211486903360526e+02 -4.9625269519478024e+01 -4.8595953003647718e-01 2.0025823448355531e+01 1.2396505730290627e+01 3.6963867348658090e+02 -1.1845223364858702e+01 1.8935542139608867e+02 -2.5301595055360391e+02 1.9674012975391764e+02 -2.4703070106673160e+01 3.6585459287771016e+00 2.0501666763017903e+02 
      </Row>
      <Row Index="14">
        1.0907766814269790e+01 1.5442068602438932e+01 8.5094590400191606e+01 -2.2090679655239217e+01 -3.9502533052698743e+02 4.8439440837240545e+02 -1.2715708479951436e+03 3.5671563966026952e+02 2.3981639795277651e+01 1.4925854273309085e+00 2.6479208327525539e-02 -8.5346472470747358e+01 -7.3195508498825745e-01 -2.2606766911222439e+02 5.7261450148505332e+02 -5.0645214010753500e+02 6.5299329875590047e+01 -1.0670119716975393e+01 8.7394899863729467e+00 2.2331780384124706e+00 3.8335648295421336e+00 8.4062613893263416e-01 3.4375052367909120e+02 1.8959304032540740e+02 -7.3376411835479712e+02 4.9149791651288979e+01 -5.0191704143710467e+00 -3.6793930269905832e+00 -4.8949077435835013e+00 4.4865805462530801e+01 -2.1246485375118498e+00 3.8600736209767325e+02 4.2677740588210057e+01 2.6030164584754937e+02 -1.1145726526269573e+02 5.5593738748315280e+00 6.2182647210151174e+00 9.4873425825311326e+00 -8.3872473231160797e+01 -2.2315366859678214e+01 2.1260914476392441e+02 -4.1597849155891623e+01 -8.9926622369822314e+02 3.3374613670696999e+02 2.0135596230266287e+01 -1.7665581958254378e+01 -9.8198085347201243e+00 -1.6315203200163978e+02 3.2366186143123748e+01 -2.6852512116347162e+02 5.4609797135419205e+02 5.6521024986005628e+01 3.7842139342580062e+01 2.1084290662954572e+00 -4.4493200762781657e+02 
      </Row>
      <Row Index="15">
        2.2006179062890044e+02 -1.4120967637046780e+02 -6.9342649388402458e+02 2.6635892290481472e+01 1.7115666478894609e+03 -7.8755642652048800e+02 -1.9024302350262409e+04 -1.4235352751743631e+02 7.1474204460453961e+01 -2.7178675748176602e+01 1.8031782304713084e+00 1.0214439159174217e+03 -4.7812504418694175e+00 8.6226532147458056e+02 -5.0645214008529365e+02 2.3239935139841415e+04 -2.3982237792946398e+02 -5.4253724574250157e+01 5.9507910387775397e+01 -1.1476430622227856e+01 7.9653146233065786e+02 2.6733141246234286e+01 -1.1225988658170099e+03 2.4644531860001734e+02 -2.7387838884015026e+04 -3.2283375950367190e+02 5.7218238997720618e+00 2.3075963825377116e+01 1.0756382404604589e+02 -6.4560798377579033e+02 6.3929217900690603e+00 -8.0883206966179773e+02 1.9935628855209021e+02 -3.5658315081380888e+03 1.3275522056152113e+02 -5.4909440780507097e+00 2.1883101853960923e+02 -5.0469556716760970e+01 -3.7315483054121751e+02 1.7422519732998175e+01 2.9104834928921838e+02 -8.1533738032136432e+02 1.8483831830065483e+04 -4.0349900991487084e+02 3.8612549115497927e+01 -1.7114839278770226e+01 1.0564356274623924e+02 5.9974476431014282e+03 -1.5388846033355108e+01 6.8099106953506680e+02 -1.0040986448549139e+03 2.6626005428050539e+03 -7.6251511881249996e+01 3.8443593257546581e+01 3.5509330867533768e+03 
      </Row>
      <Row Index="16">
        -6.0694090517910961e+00 6.8070174977551234e+00 -1.2478462846315505e+01 -8.7614535410876329e+00 5.0008479861124378e+01 1.0005014489900235e+02 -5.1929760021577636e+02 1.6488412686815718e+02 6.4486158683668924e+00 -2.8333075922535045e-01 3.3711969017434856e-01 -1.5240928080707090e+02 -5.6335334906873413e-01 -2.6966177514375886e+01 6.5299329935915011e+01 -2.3982237852631442e+02 1.2776681075536180e+02 -1.1291663016874033e+01 2.5209581725851886e+00 2.0949693837729277e-01 -7.9761158615833835e+01 3.7166416219863807e-01 -7.5172453985956963e+01 1.4534242591291331e+01 3.6159984882867309e+02 9.3264629287528805e+01 -5.3192833569091817e+00 2.6459707575263325e+00 -2.1595540215236961e+00 4.2882672970139524e+01 -3.0715333400823774e-01 -2.0278251316265073e+02 -9.2094182731066041e+01 -3.1626995249624045e+01 -5.7649704719719011e+01 1.7822274472892659e+00 -4.1754175729227052e+00 4.2712608809393773e+00 3.8566939255877202e+02 -8.3725746942657153e+00 -1.4368843044969321e+02 -3.6579538338754745e+01 -1.0850296183650769e+03 1.6195324043347500e+02 6.9433319799278470e+00 -4.3241037980312500e+00 -4.5340917135117706e+00 -1.6477415150801826e+03 1.1039815283795228e+01 3.6315282625861634e+01 4.7489949751174549e+01 -4.9320298915109504e+00 2.2038190682191761e+01 4.4871066453220010e+00 -1.7009897953993182e+03 
      </Row>
      <Row Index="17">
        1.3602585490336800e+00 1.3066799175664718e+00 7.7654099341010948e+01 -3.4600802181664028e+00 -3.5741130012891894e+01 4.2835364214721224e+01 2.5154232670944083e+02 -4.9916134658407827e+01 -6.7605977587971191e+00 3.1587001727658048e-01 -4.3388915860997912e-02 -6.2206006048576910e+01 1.6098955905885504e-02 -4.7589125522608811e+00 -1.0670119707678623e+01 -5.4253724659451109e+01 -1.1291663026044262e+01 2.2954879970560711e+01 2.8386242426465147e+00 2.7794542914915871e-01 -3.6490946458926565e+01 -1.8285830527119623e-01 2.2681032941348349e+01 -6.2076376784236800e+00 9.2700758389721173e+01 9.3756440620636567e+00 1.0854402650514203e+01 5.5887609399761662e-01 -6.6376417052900438e-01 4.8194991122824533e+01 -1.4225869567348198e-01 3.3720591906176793e+01 2.4084140913052924e+01 -4.8621078217816468e+01 -2.1568911568887415e+01 -4.9895138420058025e+00 1.0281695835393889e+00 6.2522559282133450e-01 2.2543539824816610e+00 -3.1930052317431024e+00 2.5142551227771630e+01 1.3540515131131125e+01 1.4949420734032330e+02 -1.7436786051694071e+01 -6.0051851845916060e+00 -4.4153485461134405e+00 -1.1759493179669676e+00 -3.5374788090928416e+02 5.7467455922929949e+00 -4.8698209519628080e+00 -5.6918602462993526e+00 -2.3418656476001374e+01 5.0428311111166053e+00 -8.8824597811184560e+00 -2.9965985959482100e+02 
      </Row>
      <Row Index="18">
        3.4814321586282375e+00 1.5833554604398696e+00 1.6076102692154041e+01 -1.8817071652273190e+00 -2.9661717331225308e+01 3.3680980565298682e+01 -9.4565638566989421e+00 -1.7278638087330535e+01 1.6127026358394864e-01 2.5022513944991776e-02 -3.2361200450871652e-03 -2.1069980415467256e+01 -8.2316100962619487e-02 -9.1034503529458561e+00 8.7394899862167321e+00 5.9507910392327318e+01 2.5209581697640715e+00 2.8386242421957402e+00 4.7435118235110494e+00 3.3610399245197986e-01 -1.3565033736011504e+01 -1.4543815991600070e-01 2.5658509404365759e+00 2.0883200243190458e+00 -5.4166113102487543e+01 7.6966908556669296e+00 1.5768891270930183e+00 1.4978956652178959e+00 -8.5695907368371671e-01 1.6744967789608853e+00 -3.5334773456475305e-01 1.5090682758183071e+01 -1.8532387816124134e+00 -6.5984318993836695e+01 -7.6641078212098819e+00 -1.0195542513841216e+00 3.2082957131898890e+00 5.7492567492594382e-01 -2.8566606301413589e+01 -1.8923963560558912e+00 9.3180232846948456e+00 -1.9429531209397322e+00 1.9755739240560683e+02 -8.9057557082026051e+00 -2.0907825275993497e-01 -5.4437634550867786e+00 -1.2534776564066306e+00 -2.4993628442091957e+01 2.7875166511303968e+00 -2.1534371724124153e+00 4.5812994731600600e+00 -1.1642241021281592e+01 5.8548668802900128e+00 -1.4183971064439804e+00 -7.9658115501828455e+00 
      </Row>
      <Row Index="19">
        5.7012892331339915e-01 8.1275405405911250e-01 3.5791706170932933e+00 -1.5545544347556550e-01 -9.3567857421257496e+00 4.1521898952187923e+00 2.0772394524790666e+01 -1.9776341346343429e-01 2.7308781485203543e-01 5.2050821035940165e-02 -4.2482187976094349e-03 -2.1922261559612473e+00 -2.7156117801799759e-03 -2.1031363095705444e+00 2.2331780382770248e+00 -1.1476430620687545e+01 2.0949693719319384e-01 2.7794542895180507e-01 3.3610399244989475e-01 5.2562295867755093e-01 -1.3009073500594870e+00 -4.6454233584600456e-02 7.3351169190002565e+00 2.2167140842970312e-01 -1.2836597291157172e+01 2.8139061404669974e+00 5.1896209151491846e-02 4.7544593922714172e-02 -5.0263916699649014e-01 1.0089863858782422e-01 -1.0759960896707547e-01 1.4744344818106237e+01 1.7068321538151721e-01 1.2512971580789660e+01 1.5878930850092843e+00 -2.0810457313342900e-01 5.0288495692303581e-01 1.1712674085564553e-01 -1.0660979101936041e-01 -2.0968293789001929e-01 8.7036793361171405e+00 1.3297895107572706e+00 3.6880172950477991e+01 -1.1319488661621335e+00 1.3520733813728730e-01 -1.4167818929014930e-01 -4.7699185506937358e-01 -3.9833577552063391e+00 4.5845035099790110e-01 -3.7636009163076678e+00 4.2749123780438705e+00 -1.2672651970681943e+00 2.2585379844086861e-01 -1.1716827270720365e-01 -2.7390621231259660e+00 
      </Row>
      <Row Index="20">
        -1.1168918808412083e+00 -1.3152261475877594e+01 -4.5279995280585757e+02 1.9304854290786157e+01 8.8353096600027882e+01 -2.0636409033095688e+02 -2.6862478643534546e+03 -1.8858107207424473e+02 3.5058289429775868e+00 -8.2379682135010626e+00 5.5622787856890454e-01 4.6229228212013550e+02 2.4877407173444510e-01 4.4703191144915763e+01 3.8335645793922595e+00 7.9653146477660630e+02 -7.9761158515932038e+01 -3.6490946482378618e+01 -1.3565033748431233e+01 -1.3009073552120753e+00 6.7404371366907890e+02 4.5662139138656471e-01 -6.1724079624691512e+01 1.5275374365783500e+02 -6.5942284015554897e+03 -6.3447622726671398e+01 -1.4554596430560196e+01 -5.6377003344952126e+00 1.0408196432872410e+01 -4.0608231404806901e+02 8.2820892031551385e-01 6.7489125290000828e+01 2.8958640590516019e+01 5.0412258934147627e+02 -1.6457514428463764e+02 1.1687138978944511e-01 1.0244414707450789e-01 -3.7413249080057067e+00 -2.1546857785792149e+03 1.8019039498332535e+01 6.1591968964856996e+01 -6.9024240063259356e+01 4.1389987974504575e+03 -1.6696085993829183e+02 -7.0462260172257540e+00 2.1599464763372787e+01 1.3216674333638366e+01 7.8434665180263555e+03 -3.1019565876401664e+01 -3.7925878038630614e+01 1.1654887977435120e+01 4.8921139636909237e+02 5.7380320651159934e+01 1.6142535081075948e+01 7.3897889328013016e+03 
      </Row>
      <Row Index="21">
        1.3299982460275974e+00 -3.9870823213090945e-01 -1.6626560244212634e+00 -9.1406305843236690e-01 3.9813521665640756e+00 -2.0883799319166307e-01 -3.8574531121318529e+01 6.1383902564897426e+00 3.5114011849635474e-02 -7.1613746628280239e-02 1.7865720492808657e-02 -2.9574395764086603e-01 2.1297499010926146e-02 1.1938909941625298e+00 8.4062613961678778e-01 2.6733141239685409e+01 3.7166416319178097e-01 -1.8285830503751846e-01 -1.4543815989284603e-01 -4.6454233574845460e-02 4.5662138633611182e-01 3.5562782917995556e-01 -4.3700603237545010e-01 -6.0158629243422013e-01 -1.0510340705239377e+01 -5.1202688037119515e-01 -9.6951600519261660e-03 -7.5132424983457416e-02 1.7108267578978117e-01 7.4132496654170033e-01 3.4511381000636207e-02 -1.0633599427764386e+00 5.4258126875532064e-01 3.6576848037522680e-01 1.2669018887527272e+00 1.0690091507330041e-01 1.1639898345748434e+00 -2.1644969479841450e-01 1.6852929801511021e+00 -9.6510812566067705e-01 7.3240300388099655e-01 -5.4153463677988034e-01 -6.8733118798761730e+00 3.7958520903800945e+00 7.9092664002569535e-02 3.2135958460905600e-01 2.0054482929470741e-01 -5.5212043411741325e+00 1.4297734413040271e+00 1.4659681311811568e-01 1.0312790388244153e+00 3.7135092207505696e+00 -6.7251470373669120e-01 7.0723627901230657e-02 -1.1530608195837539e+01 
      </Row>
      <Row Index="22">
        4.3607432851917231e+01 2.7129235052212692e+01 2.4763524912854209e+02 -3.2138392954538371e+00 -1.8600698699700215e+03 3.8229773106533020e+02 2.6619819422946262e+03 -4.1148406845750287e+01 2.2189430650164139e+00 1.3115926927757812e+01 -8.6923507880411677e-01 -8.3123317288942417e+01 1.8542468566383192e+00 -2.9772388880189101e+02 3.4375052356820379e+02 -1.1225988647486411e+03 -7.5172454293002374e+01 2.2681032879128942e+01 2.5658509368420255e+00 7.3351169175714404e+00 -6.1724078171952414e+01 -4.3700603378764957e-01 1.6611676082976664e+03 1.8946332658130450e+02 6.8491958032103219e+02 -2.8774368381942622e+01 7.2367653905557745e+00 -1.9228419201365377e+01 -1.4730783928879731e+01 3.6222313989624254e+01 -6.5219344281735712e+00 2.3912102720551616e+03 4.6031376827343649e+02 1.1207345017031464e+01 5.5888391458109254e+01 -9.1261616601564732e+00 3.0120307296417629e+01 1.0931400395291915e+01 -4.2530815801630979e+02 -8.1161029468094483e+00 1.0574405958767188e+03 5.1751953515958689e+02 3.9089845437374429e+03 -8.5472821543749887e+01 -1.3585052238552180e+00 -2.0586760144697223e+01 -2.5051115173953235e+01 8.3768973304301301e+02 1.8076141813302403e+01 -9.7059803942817825e+02 1.0152809740272157e+03 -5.0743011085786986e+02 9.6763782144701054e+00 -1.1188488563531109e+01 1.3282804438000460e+03 
      </Row>
      <Row Index="23">
        -8.2844439756657238e+00 3.4129859158106228e+00 -4.2328856814656682e+01 -7.8597754265626083e+00 -2.0813713457484613e+02 1.4714931790205623e+02 -7.5749553098482147e+02 -5.6463966518582311e+01 1.1779191609130784e+01 -5.0355605769628937e+00 1.3253266849207535e-01 -1.7819209934201353e+01 -8.7230017989632813e-01 -1.6951780991716078e+01 1.8959304027561939e+02 2.4644531908181671e+02 1.4534242546767928e+01 -6.2076376928176789e+00 2.0883200220496292e+00 2.2167140753805370e-01 1.5275374392522386e+02 -6.0158629209525194e-01 1.8946332640716355e+02 3.6685993486095867e+02 -2.1120208948933846e+03 3.4379928957554512e+01 -2.7365988832252697e+00 -5.5646867625116236e+00 1.0385062078095730e-01 -9.5628046388920438e+01 -2.1287621441797384e+00 5.6772421950027274e+02 1.5505062041424495e+02 -1.3591940687427311e+02 -1.6119759735342814e+02 -1.5181192155628960e+00 -1.2087897130521938e+01 3.0399723623524233e+00 -4.8263625804827660e+02 -8.4798544291562870e+00 3.6694033711623570e+02 -3.3543055461735804e+01 1.3729394068183592e+03 -2.2420044982078252e+01 7.1792557320727610e+00 -5.4486369498504246e+00 -1.6564236950565032e+00 1.2011604405506566e+03 9.1516631627881146e+00 -2.5230410856992751e+02 3.1884662777136145e+02 1.3476807866279341e+02 6.5096595853213856e+01 2.1573270815242722e+00 1.0661897085323699e+03 
      </Row>
      <Row Index="24">
        -3.9384726411641202e+02 9.0986816872329655e+01 4.7173538033900741e+02 5.8028952286345351e+01 -1.5808273817723330e+03 3.2651770613194481e+02 5.9415968564686314e+04 3.8654033217219403e+03 -6.0305240183947816e+01 1.3866437110683273e+02 -1.3610780483464225e+01 -5.3822703062607616e+02 2.2714360568803301e+01 -4.4309214815986343e+02 -7.3376411825837567e+02 -2.7387838886087266e+04 3.6159984728414565e+02 9.2700758208500616e+01 -5.4166113075922112e+01 -1.2836597282737785e+01 -6.5942283956135252e+03 -1.0510340726204273e+01 6.8491958411358064e+02 -2.1120208935211558e+03 1.7168933340549082e+05 -1.1922915349807590e+02 2.3711103217305208e+01 5.0265290223902710e+00 -1.2636083256928437e+02 3.5862831148295109e+03 7.1078266973773800e+00 -2.5954016354461492e+03 -1.3554458536184125e+03 6.2905501647232695e+03 2.4824671071658377e+03 6.4823512099881739e+01 -4.1223642781725380e+02 3.9296074677841588e+00 5.4308079724574063e+03 6.5067407892011431e+01 -4.2538698406357516e+03 2.9474073136797415e+03 -8.9797755463966416e+04 3.3248846258101985e+03 2.3601023390125192e+01 1.3765629056821854e+02 -1.3941596122451574e+02 -2.4219395731640707e+04 -8.8595183311979781e+01 2.5147066983999093e+02 3.8926014383365469e+02 -1.2191775892850948e+04 -1.2029810529677852e+03 -1.9228025194748625e+01 -1.3900610498568067e+04 
      </Row>
      <Row Index="25">
        6.4667452687381921e+00 9.6604381111429394e+00 1.6081179989299628e+02 -8.9600988371626968e+00 -8.3132135054476947e+01 2.3796361175377467e+02 7.1672509361338291e+02 -3.1189218952386523e+02 1.6200998796706550e+01 -7.3421815796122836e-02 -8.1574100623290391e-01 -2.7914317253212175e+02 -7.0644774651500897e-01 -2.7068176873155153e+01 4.9149791647347769e+01 -3.2283375946170099e+02 9.3264629281947236e+01 9.3756440610138796e+00 7.6966908554862634e+00 2.8139061404163908e+00 -6.3447622698893760e+01 -5.1202688040669042e-01 -2.8774368390773418e+01 3.4379928959727110e+01 -1.1922915366174584e+02 4.0468131142072616e+02 5.8364288817780761e+00 5.6514105712073821e+00 -2.4983069225072372e+00 -1.4832154566517190e+01 -1.1317716063203898e-01 1.0254240453239859e+02 -1.0053212448713013e+02 -2.4156659635032014e+01 -3.1959741518866485e+02 -6.2190288924946291e+00 7.9988590694401456e+00 5.7626298154367088e+00 -4.0068411299744542e+02 -8.6770525966733896e+00 9.1422530058236831e+01 -4.0391232945698953e+01 6.3911415916123747e+02 -7.4859588686964116e+01 1.2478158682997798e+01 -1.0531389960242924e+01 -8.6054079872756652e+00 -1.0941206279950391e+02 1.6053740660700257e+01 3.9165070364609136e+01 2.7808582205853664e+01 -1.7258988486521737e+01 1.1460501755346237e+02 -5.3453524452776868e+00 -1.3474945599893925e+01 
      </Row>
      <Row Index="26">
        8.0208709944104806e-01 3.1117696049092913e-01 3.5080408496417576e+01 -1.6699682857816622e+00 -1.2775410342928556e+01 2.1782474731369902e+01 5.6967107626068554e+01 -2.7541872353654981e+01 -3.1693154878937366e+00 2.0696968086101464e-01 -4.2164976201879867e-02 -2.8825012203566985e+01 2.3736489793242610e-02 -2.9262253042288648e+00 -5.0191704097336469e+00 5.7218238569389541e+00 -5.3192833599605365e+00 1.0854402650743339e+01 1.5768891273080783e+00 5.1896209246280023e-02 -1.4554596425237378e+01 -9.6951601534590315e-03 7.2367654188774395e+00 -2.7365988773104846e+00 2.3711103314154130e+01 5.8364288822194794e+00 6.9622133419326246e+00 3.3035993573333294e-01 2.4255107820528699e-02 2.3748272482927533e+01 -6.0708120478605736e-02 9.3686935171635923e+00 1.0502204652624297e+01 -5.2965453123272781e+01 -1.7087208918997931e+01 -2.4569951239375465e+00 6.8451940541581369e-01 2.8477143064249816e-01 -5.0153957221983525e+00 -1.5987312260347319e+00 9.2834143463682395e+00 4.5323619664944710e+00 6.0421950145489888e+01 -8.3928004188019258e+00 -3.4785385980557635e+00 -1.9385610800939475e+00 -3.1872629290791110e-01 -1.6430959062044474e+02 2.7827154809406522e+00 7.1782476138628315e-02 -4.4809373632697662e+00 -5.7111227465034879e+00 3.6980623486061828e+00 -4.3846080656980462e+00 -1.4241668533555028e+02 
      </Row>
      <Row Index="27">
        4.5170265959194267e-02 3.1312724000841108e-01 2.2044598795606434e+00 -1.7074738288468716e-01 1.5035623787925593e+01 3.6964586341067029e+00 -2.6420635367932533e+01 -1.4664115187325478e+01 2.2631659696603992e-01 -1.2856319828010676e-01 -4.3598394286771924e-02 -6.2630110053365797e+00 -5.1085524901067714e-02 1.5244794274476590e+00 -3.6793930251022573e+00 2.3075963807963035e+01 2.6459707603426068e+00 5.5887609471432143e-01 1.4978956652940170e+00 4.7544593953357861e-02 -5.6377003492066251e+00 -7.5132424983792565e-02 -1.9228419197011931e+01 -5.5646867634269199e+00 5.0265290742364641e+00 5.6514105712158198e+00 3.3035993604485725e-01 1.7383898146588648e+00 -9.8174451899327164e-04 1.2898679859947448e-01 -3.8519211534939535e-02 -2.5844564045910090e+01 -1.0507613983532687e+01 -3.0556790801031752e+00 -5.3337854116543895e+00 -2.7523817797752137e-01 8.9873317793529128e-01 1.7929570750537493e-01 2.3478556644555710e+00 -1.4297680191054951e-01 -1.2890553861020898e+01 -7.9746767216365724e+00 7.6065992277531791e-01 -6.5131023312551406e+00 9.8386583692672502e-02 -1.5328506982651575e+00 -4.2423881803598462e-01 -3.9386349411938241e+01 1.5198361375084524e-01 1.3253836374686342e+01 -1.4496150305571678e+01 -7.3235661837541211e-02 2.4958055536892232e+00 -2.6065230897137681e-01 -3.5107484653113033e+01 
      </Row>
      <Row Index="28">
        -1.9337483440710485e-02 -3.9065331195802919e+00 -1.3487237118831889e+01 1.3463276055525140e+00 2.5244485115372150e+01 -1.3497443614654106e+01 -1.6460749258138807e+02 1.2550395827884131e+00 -1.0685277537069777e+00 -4.1419987875607944e-01 5.5350343096742749e-02 1.3180963881756142e+01 -3.4402709141554313e-02 8.2428736663430300e+00 -4.8949077428407648e+00 1.0756382403795817e+02 -2.1595540167222680e+00 -6.6376416973022145e-01 -8.5695907368232760e-01 -5.0263916699528854e-01 1.0408196411801370e+01 1.7108267582870221e-01 -1.4730783933872999e+01 1.0385061730937650e-01 -1.2636083252862689e+02 -2.4983069227810120e+00 2.4255108201359121e-02 -9.8174440752574199e-04 3.0137882438245520e+00 -4.4695144618504967e-01 2.5656986698162898e-01 -2.9915244094534799e+01 6.9201473977492665e+00 -3.0619612456720482e+00 -7.1191239172308087e+00 2.7050676287161712e-01 6.1478951496541812e-02 -1.0795464730543201e+00 7.4305478323082204e+00 1.3027216199819069e+00 -1.5575876493706446e+01 -1.4160099211533623e+00 1.8607897693709209e+01 5.3505696363808966e+00 -1.0079547429788143e+00 1.6645108206002721e+00 2.2984885593505995e+00 2.7623372494938252e+01 -1.7497354468888093e+00 7.3861612384121127e+00 -8.5702507318929904e+00 1.8371729662020321e+01 -2.1726393945988249e+00 3.1929039002236603e-01 8.4522605266131876e+00 
      </Row>
      <Row Index="29">
        -1.3666318333726105e+01 1.2359453894550825e+00 4.9638185214241821e+02 -2.3024280573494487e+01 9.3518877182411714e+01 1.3581270934909909e+02 9.5938786658552453e+02 1.7395233589597046e+02 -1.7750697732626556e+01 6.5689745810941531e+00 -5.7905168905460869e-01 -4.7716858001804212e+02 -3.4003224279211963e-01 -3.5562660393305123e+01 4.4865805825422285e+01 -6.4560798731443356e+02 4.2882672893349081e+01 4.8194991165768442e+01 1.6744967961540169e+00 1.0089864580913854e-01 -4.0608231432145840e+02 7.4132495999341619e-01 3.6222315962775610e+01 -9.5628046058234759e+01 3.5862831237073697e+03 -1.4832154531963170e+01 2.3748272495198762e+01 1.2898677929388214e-01 -4.4695147559786452e-01 5.1611930457202482e+02 7.1336394743306608e-01 -1.8210057638474973e+02 6.8187081538784597e+01 4.0697495930765791e+02 -1.4103292932268232e+00 -8.6450408394306144e-01 -1.3747685481434672e+01 1.5113543639371105e+00 3.0409742703265392e+03 -2.0859113347590519e+01 -7.6553884080632827e+01 1.6470007718147816e+01 -3.2992663959520551e+03 2.0309779730113223e+02 -7.5897914126417163e+00 -2.0798477184216608e+00 -2.3232992407811253e+00 -1.0464071151639899e+04 3.5278984673774630e+01 1.7798977413260253e+01 1.7135303004962033e+01 -1.5785715714889031e+02 -4.9071138885646540e+01 -2.2243693243485723e+01 -1.0321760009441667e+04 
      </Row>
      <Row Index="30">
        -1.0186907672260573e-01 -4.4481331985360573e-01 -6.9272591103856485e-01 1.4396485838709860e-01 8.8607269590353823e+00 -2.4747447979770101e+00 -7.5028216342979306e+00 2.6547503273866369e+00 -5.7763955342698292e-02 -5.7497279882960939e-02 1.0924779143750230e-02 1.8073106401875805e+00 -9.6781081446198902e-03 2.3910801966087547e+00 -2.1246485363752470e+00 6.3929217788643200e+00 -3.0715333259286126e-01 -1.4225869529471424e-01 -3.5334773451907964e-01 -1.0759960894833043e-01 8.2820891258828055e-01 3.4511380996780069e-02 -6.5219344249838969e+00 -2.1287621445224829e+00 7.1078267314072718e+00 -1.1317716061785177e-01 -6.0708120318111014e-02 -3.8519211543915688e-02 2.5656986690850397e-01 7.1336395730364144e-01 1.9284949142117197e-01 -1.1907320488545679e+01 -1.9607218228202035e+00 4.0489761369316506e+00 -8.3347253844658553e-01 1.2265987815645241e-01 -6.2292511640228893e-02 -1.5925467633763313e-01 1.0458105194634395e+01 2.5033513823646503e-01 -7.0872613445722497e+00 4.9143746275408517e-03 -1.7323014230422469e+01 2.7004050335203829e+00 7.3049799541529126e-03 5.5487669763491887e-01 4.1930535978027983e-01 -2.0201712102902036e+01 -3.7729944830040463e-01 4.8089836530113494e+00 -4.0881649095030266e+00 1.8679585490726687e+00 -5.8345087118230932e-01 8.5194445196837165e-02 -2.3286334414759366e+01 
      </Row>
      <Row Index="31">
        1.0368617844639226e+02 3.7626765524797747e+01 6.1061102144003780e+02 9.3107024578416020e-02 -2.9907295009652489e+03 5.7638621260777381e+02 5.7913848316705335e+03 -1.0023429152186582e+03 3.3056685374235741e+01 9.7575291925841157e+00 -2.0761719981713611e+00 -1.3018779701453059e+02 1.6141041259908171e+00 -4.4476224126240413e+02 3.8600736194711135e+02 -8.0883206814646837e+02 -2.0278251365554752e+02 3.3720591809870712e+01 1.5090682753401325e+01 1.4744344816259172e+01 6.7489127588740303e+01 -1.0633599453120777e+00 2.3912102721752744e+03 5.6772421980072977e+02 -2.5954016411066041e+03 1.0254240454721730e+02 9.3686934729239510e+00 -2.5844564054145962e+01 -2.9915244088119309e+01 -1.8210057952160031e+02 -1.1907320494206823e+01 4.7342213601944241e+03 7.3937092919104498e+02 -5.2316519872776973e+02 6.1448886984435376e+01 -1.5891338490489330e+01 7.7470792909513889e+01 5.6862505528907121e+00 -1.9336879554156275e+02 -9.6248272540251776e+00 2.4760913878899128e+03 6.7813543435540964e+02 1.2226701976368888e+04 -9.7127120889318758e+02 2.4453630601503619e+01 -4.5058231548205413e+01 -3.9784588211147025e+01 6.2764715747947309e+02 2.5184950188507116e+01 -1.5552455956901185e+03 1.3989858920249537e+03 -6.8246826587774376e+02 1.0033544095663405e+02 -1.5410934037004608e+01 1.5765192949685709e+03 
      </Row>
      <Row Index="32">
        1.0519090164116188e+01 -8.9753141511516645e+00 8.4318274695075161e+01 -2.7434288168797534e+00 -3.7030442556301227e+02 -2.4345621337033663e-01 -1.9469384821056576e+02 -8.1516536745235499e+01 -1.8960022574651205e+01 7.8466004363235697e-03 4.5885816420537395e-01 -5.3716733341567306e+01 3.6493059250673276e-01 -8.2363283240338205e+00 4.2677740592552254e+01 1.9935628851932597e+02 -9.2094182815053500e+01 2.4084140900627290e+01 -1.8532387812236948e+00 1.7068321560921618e-01 2.8958640935492895e+01 5.4258126789405148e-01 4.6031376844047918e+02 1.5505062048655009e+02 -1.3554458537950250e+03 -1.0053212448343402e+02 1.0502204646342307e+01 -1.0507613986356688e+01 6.9201473965994680e+00 6.8187081039184321e+01 -1.9607218244477855e+00 7.3937092942224444e+02 3.7528076454994857e+02 -2.0089234787432707e+02 -1.7888113607652485e+01 -2.3282177670533617e+00 3.3646188273550637e+00 -2.5317389649707880e+00 9.2904609263489334e+01 -4.4585790837164581e+00 4.4298689000807167e+02 1.4423811317718878e+02 1.2222464770903289e+03 -8.6835258383813198e+01 -1.4318413869302049e+01 -1.3903234097389827e+00 5.4007032775225809e+00 -5.3676594472313661e+02 9.0585096785006840e+00 -3.3618364504582524e+02 2.7645065439616076e+02 4.4494809792469979e+01 -1.4611129922228976e+01 -1.1277794624946239e+01 -5.1535896996813767e+02 
      </Row>
      <Row Index="33">
        -9.6849555528032056e+01 1.0572148662751033e+01 -4.4317095705644169e+02 7.6447570471219670e+00 4.6600902776029034e+02 -5.4639052485856882e+02 -7.8796828556165815e+02 8.8608213508699555e+02 -5.1291383756528887e+01 8.9817957440095597e+00 -5.5204319777235185e+00 4.2754755502792977e+02 5.1968583483256481e+00 -7.3928198839712422e+01 2.6030164600499847e+02 -3.5658315098001331e+03 -3.1626995268743485e+01 -4.8621078196109011e+01 -6.5984318985977097e+01 1.2512971584013485e+01 5.0412258914434278e+02 3.6576847743138696e-01 1.1207345880888170e+01 -1.3591940674310172e+02 6.2905501691075333e+03 -2.4156659618020058e+01 -5.2965453116659774e+01 -3.0556790881310008e+00 -3.0619612592373802e+00 4.0697495939963795e+02 4.0489761327312603e+00 -5.2316519734953181e+02 -2.0089234765402944e+02 9.6779821315077206e+03 -9.8477104501333088e+01 1.7398660182014314e+01 -7.7911515395378188e+01 6.6451682437630604e+00 1.9562698861985582e+03 9.2666071374182195e+00 -4.4879359236567245e+02 -1.1268317697910170e+01 -5.6912470369975408e+03 8.0280043889256194e+02 -4.2305289508815804e+01 1.0341513258764599e+02 -2.6255888067844353e+00 -4.2846375010935153e+03 -1.8019199525910835e+01 -8.6057023195349160e+01 3.3683681612853621e+02 -8.4115197188173738e+00 -1.2337981907918564e+02 2.5994582067954525e+01 -4.7074383945039672e+03 
      </Row>
      <Row Index="34">
        9.5502537569313759e+00 8.5656097712690382e-01 -7.9338025615807965e+01 1.1595534145683652e+01 -8.0675966476958365e+00 -2.3866150412254547e+02 9.7415016619904134e+02 3.4792926590426578e+02 1.7132463809677745e-01 2.4840049477186597e+00 5.8174061706864499e-01 2.5521856649458186e+02 9.6447948376225501e-01 1.6919873256330902e+01 -1.1145726524800239e+02 1.3275522041685144e+02 -5.7649704732248210e+01 -2.1568911568536123e+01 -7.6641078202477502e+00 1.5878930853447173e+00 -1.6457514425706540e+02 1.2669018884169427e+00 5.5888391557854447e+01 -1.6119759733210822e+02 2.4824671075043470e+03 -3.1959741518570809e+02 -1.7087208919206432e+01 -5.3337854126739899e+00 -7.1191239186615700e+00 -1.4103293512257054e+00 -8.3347253904304330e-01 6.1448887142105377e+01 -1.7888113588315719e+01 -9.8477104535802027e+01 5.7258936621318571e+02 8.7339552123903612e+00 6.9768867405676911e+00 -5.7438709535192531e+00 7.0552260300928344e+02 1.0017921632841517e+01 1.7978346783121921e+00 6.6140390773181110e+01 -1.1352456001548476e+03 4.1927780071200687e+00 5.7847249874884028e+00 1.0312805907368016e+01 -5.4878903553824898e-01 -4.4901026596894110e+02 -1.5391061849701941e+01 4.3329201424010328e+00 -1.0508751822606649e+02 -1.9783021972937104e+02 -1.5240155379851149e+02 1.2210078708371839e+01 -3.4723227909721561e+02 
      </Row>
      <Row Index="35">
        -8.3787714941187974e-01 -5.0145193953035117e-01 -1.2306268181639865e+01 -1.2895784372965977e-01 2.1684964600288225e+01 -1.3118633199122051e+01 -5.3585593191704412e+01 2.3753368365957954e+01 -4.1634904351029756e-01 1.1062153117643314e-01 4.5374577531298976e-02 2.8028528155262791e+00 -2.5271652559141211e-03 -3.0880138234857668e+00 5.5593738749550710e+00 -5.4909440806409862e+00 1.7822274499567357e+00 -4.9895138415975744e+00 -1.0195542513874152e+00 -2.0810457313702191e-01 1.1687137843082951e-01 1.0690091509788147e-01 -9.1261616642161982e+00 -1.5181192177447684e+00 6.4823512119197105e+01 -6.2190288926030917e+00 -2.4569951237379541e+00 -2.7523817789999327e-01 2.7050676288423975e-01 -8.6450406801567681e-01 1.2265987820256333e-01 -1.5891338496114599e+01 -2.3282177668770672e+00 1.7398660189292769e+01 8.7339552131493292e+00 3.7363510841605061e+00 -8.2281928075635058e-01 -1.8987947609589931e-01 4.8639200515699343e+00 -8.3302900882781916e-02 -2.8101426463524568e+00 -8.0995233781730551e+00 -2.0175977726552910e+02 1.3452660098326760e+01 1.9211890316572777e+00 1.4262438340039756e+00 6.0881657009232804e-01 2.6721827602396125e+01 -1.9898212561069828e-01 2.8948804364542138e+00 -1.4740317640867313e+00 8.0114618674064353e+00 -3.8761318111022911e+00 1.8964558588121436e+00 1.1126143385816896e+01 
      </Row>
      <Row Index="36">
        1.8448905613386835e+01 1.4218342586958723e+00 2.1525939831031337e+01 -2.5616944659663718e+00 -5.0831325967538191e+01 1.6220326444498255e+01 -9.5660777625570290e+00 -2.1045970047953688e+01 1.8340197174184050e+00 -1.1567261353547664e-01 1.2796812278125924e-01 -3.9909728614045434e+00 -2.2038812728358059e-02 -1.3997469059041578e+01 6.2182647200746715e+00 2.1883101855681525e+02 -4.1754175735622994e+00 1.0281695831828301e+00 3.2082957131060965e+00 5.0288495689456525e-01 1.0244415319550626e-01 1.1639898346006685e+00 3.0120307290194205e+01 -1.2087897130568422e+01 -4.1223642787187759e+02 7.9988590694665618e+00 6.8451940528586874e-01 8.9873317796850216e-01 6.1478951635741297e-02 -1.3747685487787194e+01 -6.2292511617035862e-02 7.7470792899040362e+01 3.3646188255020206e+00 -7.7911515397340054e+01 6.9768867395177949e+00 -8.2281928068487176e-01 1.6652006766959410e+01 8.8754856462696141e-01 -4.6806306742420389e+00 -3.1925187623082323e+00 5.9531582812937387e+01 1.5231674701204696e+00 6.9226493827025092e+02 -2.3967562858952078e+01 1.2505367490522517e+00 -3.9637746642789935e+00 -1.2534798693544502e-01 5.0594030327939535e+01 4.5855445046329137e+00 -1.3857238969671922e+01 9.7944137298261822e+00 6.8616852189727719e+00 2.4321373765075367e+00 -4.1587055221215508e-01 4.9726320099375314e+01 
      </Row>
      <Row Index="37">
        8.9240568343827809e-01 4.6650267506357386e+00 5.6510079185655400e+00 -1.2253463931918529e+00 -1.0493950514877668e+01 9.6490258008364833e+00 1.6257445259581914e+01 7.3520440437769139e+00 5.1057836195464157e-01 3.5572457008942315e-01 3.4643355040354429e-02 -1.4573700307107572e+01 -4.3676026226712461e-02 -7.3865876527920591e+00 9.4873425805901377e+00 -5.0469556697547318e+01 4.2712608784477197e+00 6.2522559217327967e-01 5.7492567484581159e-01 1.1712674082500385e-01 -3.7413248946157864e+00 -2.1644969479512000e-01 1.0931400390091540e+01 3.0399723630090705e+00 3.9296074082036512e+00 5.7626298154027609e+00 2.8477143036712960e-01 1.7929570751659263e-01 -1.0795464729296924e+00 1.5113543468373649e+00 -1.5925467633953477e-01 5.6862505436711217e+00 -2.5317389676617950e+00 6.6451682363809823e+00 -5.7438709545358506e+00 -1.8987947601965338e-01 8.8754856466692322e-01 3.2344127277593540e+00 -3.6106910936786633e+01 -1.0961602988458659e+00 4.1237178332393043e+00 -2.7478497457085780e+00 -3.9347513459430672e+01 9.6609941201431866e+00 4.7794445787543083e-01 -1.2269611920237615e+00 -1.2885307249040974e+00 3.0933218256697870e+01 7.3964430029356087e-01 -7.8335421622454691e+00 1.3782556450703300e+01 -1.6668450509015456e+00 4.1368045333570782e+00 -3.4553264508339865e-01 3.2438614927075214e+01 
      </Row>
      <Row Index="38">
        -1.3210936978148311e+01 -5.0011347679188475e+01 4.9088784085719381e+03 -2.0277443673212222e+01 1.0513605483371648e+03 6.5185260464029852e+01 8.6096133629879914e+03 -8.5513992640096694e+02 1.0106039955082164e+02 1.4302051182741707e+01 -4.6034714217876171e+00 -3.1524745120771695e+03 -1.1689549361626632e+01 3.1193481137044728e+01 -8.3872468727175146e+01 -3.7315487418835983e+02 3.8566939194500446e+02 2.2543545616208576e+00 -2.8566606091335416e+01 -1.0660970264871139e-01 -2.1546857833168469e+03 1.6852929031870190e+00 -4.2530813421169296e+02 -4.8263625421375036e+02 5.4308080827905796e+03 -4.0068411259353161e+02 -5.0153955460991710e+00 2.3478554353423533e+00 7.4305474740195407e+00 3.0409742723173113e+03 1.0458105078786383e+01 -1.9336875757691450e+02 9.2904615477425978e+01 1.9562698859826196e+03 7.0552260379120708e+02 4.8639198563760146e+00 -4.6806306039112613e+00 -3.6106910736493489e+01 4.2919268556403040e+04 -9.7031210312695606e+00 4.3219961267233521e+02 -3.5220877183831760e+02 6.9839568408355922e+02 -1.1484988737069070e+03 1.1783778719484690e+02 4.4404453206283506e+01 1.5091734916422865e+01 -1.2542703422012180e+05 6.8188597350963391e+01 4.5389936535434259e+02 -7.5957675452067349e+02 -1.1384911751857192e+02 -3.6544459247943723e+02 8.9698697321000509e-01 -1.2511898970673117e+05 
      </Row>
      <Row Index="39">
        -3.7419798018191521e+00 -2.3760943038142486e+00 -2.2145729292310307e+01 8.5280001577578624e+00 -3.1315278406309517e+00 -3.1506027027565551e+01 9.7783122008585451e+01 -2.9395933760835760e+01 1.7679545562916408e+00 -1.2026557902188983e-01 -9.1754818569432572e-02 4.7566421672872366e+01 -3.9440683821472700e-02 7.1417383726511616e+00 -2.2315366869102945e+01 1.7422519822362119e+01 -8.3725746925629210e+00 -3.1930052328128795e+00 -1.8923963564711812e+00 -2.0968293806949134e-01 1.8019039505629735e+01 -9.6510812549819480e-01 -8.1161029955592312e+00 -8.4798544373149980e+00 6.5067407665950213e+01 -8.6770525976317003e+00 -1.5987312263439435e+00 -1.4297680142836100e-01 1.3027216207122205e+00 -2.0859113348273354e+01 2.5033513847728450e-01 -9.6248273309292927e+00 -4.4585790959499718e+00 9.2666071386593103e+00 1.0017921631551872e+01 -8.3302900490991760e-02 -3.1925187624127793e+00 -1.0961602992787265e+00 -9.7031209872370425e+00 8.3369265208077135e+00 -1.7936664962072541e+01 1.2844805886821174e+01 1.2171105174914877e+02 -2.8492988775666163e+01 8.5435887286098477e-01 2.7078830771308731e+00 1.2006651311586722e+00 2.4871016740022841e+02 -1.1347612668404828e+01 9.7761143821119258e+00 -2.2708408674670853e+01 -1.1114604495271061e+01 -4.9919923287788786e+00 1.7829285989906509e+00 2.6499112719195244e+02 
      </Row>
      <Row Index="40">
        7.4762494162231434e+01 2.1566866457616982e+01 5.3122675666367286e+02 -1.1858037638421202e+01 -9.4890789982549222e+02 7.1538830297351524e+01 2.4297337457228823e+03 -6.7356244068720844e+02 1.3889475968581252e+01 1.6877225099303246e+00 -4.5380434170146344e-01 -1.8395307989497815e+02 -1.7094630677143385e-01 -2.0088724767108215e+02 2.1260914479130770e+02 2.9104834909385681e+02 -1.4368843059055507e+02 2.5142551209533394e+01 9.3180232859813259e+00 8.7036793368209828e+00 6.1591969519188751e+01 7.3240300222929022e-01 1.0574405962440214e+03 3.6694033725306144e+02 -4.2538698406434396e+03 9.1422530064824969e+01 9.2834143367472279e+00 -1.2890553866687412e+01 -1.5575876496700397e+01 -7.6553884894648490e+01 -7.0872613476880293e+00 2.4760913884179172e+03 4.4298689003571008e+02 -4.4879359272728470e+02 1.7978346469753888e+00 -2.8101426473048150e+00 5.9531582816321787e+01 4.1237178383340556e+00 4.3219960245860563e+02 -1.7936664942410474e+01 1.8999682823333069e+03 -1.8122388517942636e+02 4.9432104410329994e+03 -6.3321017389482586e+02 1.5095564215651393e+01 -2.4978147057670753e+01 -1.7870118601640570e+01 -1.3229621350020439e+03 3.2484756179746057e+01 -6.0181466791414937e+02 4.0846424359717008e+02 2.5429340826838651e+02 7.2384969462051970e+01 -1.2681208955386751e+01 -1.2865191018247212e+03 
      </Row>
      <Row Index="41">
        8.0259947021162361e+00 -1.5894234746403981e+00 -4.8648138470798585e+01 1.3768797222106276e+01 -9.6637351669788768e+02 2.8512432201901174e+02 1.9034997842297889e+03 -1.3842101960006403e+01 -5.8160353865760044e+00 4.4451805876988146e+00 -6.2523602576232662e-01 3.6871265569694515e+01 1.5247760270443145e+00 -7.6136923471858609e+01 -4.1597849255089386e+01 -8.1533737938643026e+02 -3.6579538530553691e+01 1.3540515088733628e+01 -1.9429531241173663e+00 1.3297895093738816e+00 -6.9024239113989097e+01 -5.4153463728997053e-01 5.1751953502192191e+02 -3.3543055373966126e+01 2.9474073105940697e+03 -4.0391232940368354e+01 4.5323619476976091e+00 -7.9746767229180477e+00 -1.4160099161040840e+00 1.6470006452776488e+01 4.9143732450085409e-03 6.7813543406577810e+02 1.4423811303462526e+02 -1.1268318256326893e+01 6.6140390704502352e+01 -8.0995233746810982e+00 1.5231674742014478e+00 -2.7478497434205504e+00 -3.5220878693952056e+02 1.2844805918138078e+01 -1.8122388546716093e+02 7.1941273500505395e+02 3.1643023191304796e+03 -4.2879896352911601e+01 -7.5870775302632865e+00 -8.1134841236405464e-01 -3.8297714829302549e+00 9.3548680709491987e+02 -1.4940728603044420e+01 -4.2380168619264020e+02 4.7919372598447023e+02 -7.2172240725635857e+02 -2.5348788376836012e+01 -4.4858570026460711e+00 1.5736428979457062e+03 
      </Row>
      <Row Index="42">
        7.6649145814382473e+02 -3.1608692442199299e+01 3.2787378213435732e+03 1.5354023140619785e+02 -1.0447866933860794e+04 3.9738003288712789e+03 2.5511948979551438e+04 -9.6153871224988252e+03 1.2312211883315595e+02 -5.7181326597514271e+01 -7.6546321289936827e+00 1.0966055804160715e+02 6.9978132717798758e-01 -9.7211486838536803e+02 -8.9926622426709218e+02 1.8483831836567610e+04 -1.0850296194367111e+03 1.4949420708786056e+02 1.9755739238088972e+02 3.6880172940843295e+01 4.1389988029901433e+03 -6.8733118799028148e+00 3.9089845425527892e+03 1.3729394073090516e+03 -8.9797755485797927e+04 6.3911415916308761e+02 6.0421950035633927e+01 7.6065991692121315e-01 1.8607897733300192e+01 -3.2992664031387612e+03 -1.7323014236012575e+01 1.2226701974061754e+04 1.2222464762380914e+03 -5.6912470400875900e+03 -1.1352456006004941e+03 -2.0175977723981487e+02 6.9226493829182664e+02 -3.9347513451407110e+01 6.9839559872542304e+02 1.2171105191866343e+02 4.9432104393073641e+03 3.1643023187811632e+03 1.7022647779206262e+05 -8.0628833923269995e+03 -9.1013362958437938e+00 -3.1198498230247696e+02 -2.6475200956384469e+01 6.8764453849373376e+03 -9.7215874931030612e+01 -2.9678011018284369e+03 1.1348433421497284e+03 -1.8946926177494477e+03 1.1991181262177813e+03 -5.3758246371478890e+01 1.1805116444012619e+04 
      </Row>
      <Row Index="43">
        -2.2989564149071981e+01 5.6431805811508866e+00 -4.6872895349428291e+02 -3.1116555229377425e+01 4.2906347967337115e+02 4.3742406242520701e+01 -3.5601196525776904e+03 1.4897894700078323e+03 -3.3210767722817494e+01 2.6260541891535922e+00 1.2594416951385838e+00 1.3847487591028766e+01 4.8029691121957185e-01 -4.9625269432479399e+01 3.3374613664009485e+02 -4.0349900934740435e+02 1.6195324048801558e+02 -1.7436786053471224e+01 -8.9057557114006158e+00 -1.1319488675148932e+00 -1.6696086006498626e+02 3.7958520917983947e+00 -8.5472821964292962e+01 -2.2420045078297335e+01 3.3248846246701105e+03 -7.4859588693361729e+01 -8.3928004181061624e+00 -6.5131023264672194e+00 5.3505696416880113e+00 2.0309779754117972e+02 2.7004050360090801e+00 -9.7127120955132705e+02 -8.6835258476348827e+01 8.0280043902269972e+02 4.1927780098631047e+00 1.3452660101098786e+01 -2.3967562861769274e+01 9.6609941160137556e+00 -1.1484988704072448e+03 -2.8492988780854375e+01 -6.3321017403664791e+02 -4.2879896629731775e+01 -8.0628833940422674e+03 1.2503350829789415e+03 -2.4187909888290960e+01 1.3419695759014303e+01 5.7997740440507641e+00 2.4283181058370255e+03 3.3192423924431750e+01 2.1058160283143472e+01 3.7343723533565719e+02 9.0521029467989749e+01 -7.6178189768599466e+01 6.3996309608171487e+00 1.8719587846720076e+03 
      </Row>
      <Row Index="44">
        1.2089481833576414e+00 1.4949711724652630e+00 2.6225843623145693e+01 8.6587400786421087e-01 -1.0829322941326609e+00 1.1053696345839398e+01 3.6480853061803828e+01 -2.4801511980764190e+01 1.6636624297169963e+01 6.5781911844467800e-02 -1.0754809255973008e-01 -1.7594673199371300e+01 -3.6239125738278588e-01 -4.8595954407937825e-01 2.0135596241109852e+01 3.8612549010273142e+01 6.9433319778327132e+00 -6.0051851832607781e+00 -2.0907825224747967e-01 1.3520733835261467e-01 -7.0462260263227563e+00 7.9092663809936070e-02 -1.3585051651771209e+00 7.1792557418693832e+00 2.3601023653120592e+01 1.2478158684010850e+01 -3.4785385976633734e+00 9.8386583121609306e-02 -1.0079547438480121e+00 -7.5897914111409364e+00 7.3049796623907426e-03 2.4453630695028551e+01 -1.4318413854195114e+01 -4.2305289511043156e+01 5.7847249891419779e+00 1.9211890311808872e+00 1.2505367492432176e+00 4.7794445837583410e-01 1.1783778715416429e+02 8.5435887283940759e-01 1.5095564240443196e+01 -7.5870774929303479e+00 -9.1013360821912670e+00 -2.4187909895917983e+01 1.5722194174702793e+01 5.3491934428365084e-01 -1.0895505890129016e+00 -2.9718335905116618e+02 -9.1003781186451249e-01 -2.3378732897449859e+00 1.0800278297864590e+01 4.8610711105195437e+00 3.2395507742947407e+00 2.6656372754101199e+00 -3.0806807600861100e+02 
      </Row>
      <Row Index="45">
        -4.4841690001917085e+00 -2.8470869643830992e+00 -2.7894789973693605e+01 2.6763328698797118e+00 6.5804194196623854e+01 -5.3308545289344231e+01 -5.4902800395669033e+01 2.4810497049167907e+01 3.6115713553980555e-01 -2.6029061935005826e-01 3.6366351296869659e-02 3.4862711106846490e+01 6.3785310863711656e-02 2.0025823447752487e+01 -1.7665581957189247e+01 -1.7114839293828965e+01 -4.3241037904513178e+00 -4.4153485448093868e+00 -5.4437634550622773e+00 -1.4167818928460196e-01 2.1599464729497271e+01 3.2135958466468317e-01 -2.0586760151916025e+01 -5.4486369554190546e+00 1.3765629064065320e+02 -1.0531389960598972e+01 -1.9385610794783901e+00 -1.5328506980855474e+00 1.6645108205747903e+00 -2.0798476716066752e+00 5.5487669774647796e-01 -4.5058231556979166e+01 -1.3903234078539306e+00 1.0341513260868388e+02 1.0312805909789631e+01 1.4262438339685195e+00 -3.9637746644753209e+00 -1.2269611922137580e+00 4.4404453776849294e+01 2.7078830759869525e+00 -2.4978147052585406e+01 -8.1134841974868621e-01 -3.1198498235838110e+02 1.3419695749921175e+01 5.3491934567832367e-01 8.0589331250873641e+00 2.3431090223885680e+00 3.8682264357417644e+01 -3.9646207562194742e+00 1.3362388199759426e+01 -1.6708815984558484e+01 2.1391402648861707e+01 -9.4699482788140266e+00 2.1432753584771067e+00 8.2808360545762145e+00 
      </Row>
      <Row Index="46">
        -3.8883938393544426e-02 -3.5777877893586600e+00 -1.8751165435787840e+01 1.0759944986279177e+00 4.2692199116753969e+01 -2.4777752576564041e+01 -1.7485400268071635e+02 8.7289972247767764e+00 -1.3466114811585959e+00 -5.4988542405792895e-01 9.5070049805738743e-02 2.1992471552550171e+01 -2.2657856109268681e-02 1.2396505730324861e+01 -9.8198085338511021e+00 1.0564356273744283e+02 -4.5340917061939763e+00 -1.1759493167964692e+00 -1.2534776564152708e+00 -4.7699185507280895e-01 1.3216674302105304e+01 2.0054482935942319e-01 -2.5051115183142201e+01 -1.6564237005534324e+00 -1.3941596117304522e+02 -8.6054079876885226e+00 -3.1872629234257488e-01 -4.2423881785085982e-01 2.2984885593752167e+00 -2.3232991963839851e+00 4.1930535989898388e-01 -3.9784588223380979e+01 5.4007032788457039e+00 -2.6255887863577527e+00 -5.4878903346570951e-01 6.0881657008438772e-01 -1.2534798713365247e-01 -1.2885307251049181e+00 1.5091735459678858e+01 1.2006651300535427e+00 -1.7870118597663343e+01 -3.8297714916940890e+00 -2.6475201020854204e+01 5.7997740361665819e+00 -1.0895505876923934e+00 2.3431090224607036e+00 2.6779734551809540e+00 4.9060987913540622e+01 -1.7838259076027194e+00 1.2524237481481020e+01 -1.5556914324715681e+01 2.4036918963856696e+01 -4.9186107542740229e+00 5.8438351328620719e-01 2.1802622045479069e+01 
      </Row>
      <Row Index="47">
        7.8444547527375107e+01 2.1467612340231426e+01 -1.6173008548236918e+04 2.8809112346477201e+02 -2.2794542284188792e+03 -2.3994810321773402e+03 -2.8344906036699191e+04 2.6825566818527877e+03 -1.9402793211600510e+02 -6.4440491342102177e+01 1.6579761293012780e+01 1.2920679580946453e+04 3.6226076892980018e+01 3.6963869109377265e+02 -1.6315204570069909e+02 5.9974477758454159e+03 -1.6477415129244328e+03 -3.5374788263486698e+02 -2.4993629082222469e+01 -3.9833580246195197e+00 7.8434665313949808e+03 -5.5212041042123019e+00 8.3768966019339859e+02 1.2011604286818765e+03 -2.4219396066216752e+04 -1.0941206401586533e+02 -1.6430959113826975e+02 -3.9386348707281286e+01 2.7623373587768583e+01 -1.0464071156198625e+04 -2.0201711745883813e+01 6.2764704138878733e+02 -5.3676596361154225e+02 -4.2846374997505918e+03 -4.4901026827841997e+02 2.6721828196954448e+01 5.0594030108622974e+01 3.0933217639187205e+01 -1.2542703420160012e+05 2.4871016749595998e+02 -1.3229621659797849e+03 9.3548676077672280e+02 6.8764451227989048e+03 2.4283181156218052e+03 -2.9718335912982002e+02 3.8682266098214313e+01 4.9060989569145022e+01 3.8483622343123081e+05 -5.2132740734996332e+02 -1.1163691194427847e+03 1.5714216044540151e+03 1.0246711659291882e+03 5.0245885342209328e+02 1.6344786102516809e+02 3.8265019415423454e+05 
      </Row>
      <Row Index="48">
        5.4156736700601371e+00 2.4025076195944877e+00 4.6849866471293808e+01 -1.1652868984256710e+01 -7.0360073396109328e+00 5.4279869263117689e+01 -8.0720496775013089e+01 3.0053946416817780e+01 -2.1464263980585088e+00 2.4531087401149421e-01 9.1220345657504254e-02 -7.4642571189137016e+01 6.5155754174909042e-02 -1.1845223388947488e+01 3.2366186162180384e+01 -1.5388846214947989e+01 1.1039815279742470e+01 5.7467455944151880e+00 2.7875166519872892e+00 4.5845035136602519e-01 -3.1019565889138448e+01 1.4297734409673222e+00 1.8076141914110849e+01 9.1516631799468087e+00 -8.8595182856581232e+01 1.6053740662639029e+01 2.7827154815386166e+00 1.5198361274974559e-01 -1.7497354483847403e+00 3.5278984672155730e+01 -3.7729944880436417e-01 2.5184950347823360e+01 9.0585097037208016e+00 -1.8019199530257538e+01 -1.5391061847098172e+01 -1.9898212641533064e-01 4.5855445048921268e+00 7.3964430118563484e-01 6.8188597225841704e+01 -1.1347612668331701e+01 3.2484756220336067e+01 -1.4940728538219446e+01 -9.7215874573336009e+01 3.3192423913744278e+01 -9.1003781199640343e-01 -3.9646207585792581e+00 -1.7838259098645324e+00 -5.2132740704676269e+02 1.6973812799441475e+01 -1.3784440270994981e+01 3.0691315002623401e+01 1.1958075551607338e+01 7.0228916011559477e+00 -3.0347951511105293e+00 -5.3854289324699732e+02 
      </Row>
      <Row Index="49">
        -2.4149737859950847e+01 -1.6147238645937591e+01 -2.7988143674450839e+01 6.6605847024135016e+00 1.1120722729417366e+03 -1.8033864005249143e+02 -6.5948903117010923e+02 -3.2647499818049255e+01 -4.3741373305209095e+00 -4.8914567843497707e+00 2.1996812427957479e-01 1.6937671860152477e+01 -6.0739419468555411e-01 1.8935542130454269e+02 -2.6852512106403628e+02 6.8099106858129744e+02 3.6315282861993182e+01 -4.8698209018484704e+00 -2.1534371689733689e+00 -3.7636009149289293e+00 -3.7925879179916592e+01 1.4659681398244118e-01 -9.7059803935598393e+02 -2.5230410869322077e+02 2.5147067307984980e+02 3.9165070358547382e+01 7.1782498685934115e-02 1.3253836377366497e+01 7.3861612334857440e+00 1.7798978950986566e+01 4.8089836551368688e+00 -1.5552455954802535e+03 -3.3618364489659234e+02 -8.6057022527198569e+01 4.3329202220775187e+00 2.8948804326885238e+00 -1.3857238974152580e+01 -7.8335421657081525e+00 4.5389938384370907e+02 9.7761143441455616e+00 -6.0181466759596378e+02 -4.2380168625459828e+02 -2.9678011024666980e+03 2.1058159944775980e+01 -2.3378732440719432e+00 1.3362388192399521e+01 1.2524237472747586e+01 -1.1163691760791676e+03 -1.3784440192347631e+01 7.9479865383895117e+02 -8.7762149152531128e+02 3.3944588790859228e+02 -1.6431127874643440e+01 2.7841567333171042e+00 -1.3876482770564023e+03 
      </Row>
      <Row Index="50">
        2.1041968446738537e+01 2.3966808592544680e+01 -4.1115517794114567e+01 -2.0743457068921163e+01 -1.1644629755517481e+03 4.3503487471410244e+02 -7.6749119190959027e+02 4.5336911931763461e+02 1.6805791252000915e+01 5.2287502641689798e+00 -2.9841535169481403e-02 -6.3517498633824289e+01 6.0385209810252860e-02 -2.5301595044431451e+02 5.4609797123714816e+02 -1.0040986437624997e+03 4.7489949498558417e+01 -5.6918603014146356e+00 4.5812994690284086e+00 4.2749123763934449e+00 1.1654889212468333e+01 1.0312790379666481e+00 1.0152809739031727e+03 3.1884662789532922e+02 3.8926014022279924e+02 2.7808582212543115e+01 -4.4809373879079430e+00 -1.4496150307955190e+01 -8.5702507259885436e+00 1.7135301346319920e+01 -4.0881649115696783e+00 1.3989858917241727e+03 2.7645065422157768e+02 3.3683681541210171e+02 -1.0508751831302652e+02 -1.4740317597135117e+00 9.7944137341673070e+00 1.3782556454109141e+01 -7.5957677442212844e+02 -2.2708408633285160e+01 4.0846424323115571e+02 4.7919372602459043e+02 1.1348433426560382e+03 3.7343723570526345e+02 1.0800278248722407e+01 -1.6708815975490552e+01 -1.5556914314411529e+01 1.5714216654514307e+03 3.0691314917137959e+01 -8.7762149148864205e+02 1.2102014498169531e+03 -3.5768644737418350e+02 3.6067343795675946e+01 8.0059219753707112e-01 1.6384625074052483e+03 
      </Row>
      <Row Index="51">
        -9.5333993195156097e-01 -1.6793442786399169e+01 -1.8097493558228871e+02 -1.1822313721436178e+01 1.2505865022256344e+03 -4.6010477381839701e+02 -7.7394462234456787e+03 1.0641408021250390e+02 6.4270687535734510e+00 -1.3138605853876982e+01 1.8336906874647845e+00 8.5766187474934668e+01 -2.7621857724056866e+00 1.9674012969763135e+02 5.6521025074811405e+01 2.6626005420089787e+03 -4.9320295899233315e+00 -2.3418656421176365e+01 -1.1642241020085578e+01 -1.2672651963225405e+00 4.8921139499711853e+02 3.7135092227398161e+00 -5.0743011099777141e+02 1.3476807847417194e+02 -1.2191775889668279e+04 -1.7258988503890578e+01 -5.7111227210339166e+00 -7.3235656754746969e-02 1.8371729659851717e+01 -1.5785715525553678e+02 1.8679585529097222e+00 -6.8246826600532859e+02 4.4494809917626299e+01 -8.4115188467258122e+00 -1.9783021963460487e+02 8.0114618653624916e+00 6.8616852107279058e+00 -1.6668450574812539e+00 -1.1384909461558027e+02 -1.1114604542292696e+01 2.5429340854558677e+02 -7.2172240747608475e+02 -1.8946926197004857e+03 9.0521029112220276e+01 4.8610711664789505e+00 2.1391402646880692e+01 2.4036918958788988e+01 1.0246710959613524e+03 1.1958075648205181e+01 3.3944588808354268e+02 -3.5768644759774872e+02 1.6484797693035162e+03 4.2099925158316722e+01 8.1317014841224591e+00 -5.5481240559943365e+02 
      </Row>
      <Row Index="52">
        1.7764759526329286e+00 6.5846472344759377e+00 5.5014188350619861e+01 -5.0735906090284253e+00 -8.6818685938035060e+01 1.2518436000796896e+02 4.3168113065838043e+01 -1.7513067716565274e+02 5.9011106406581177e+00 -8.6275539386645050e-01 -2.5224462889226373e-01 -1.1233976520555734e+02 -3.6712773109098684e-01 -2.4703070080002362e+01 3.7842139322014191e+01 -7.6251511671533081e+01 2.2038190679420950e+01 5.0428311076002501e+00 5.8548668792686840e+00 2.2585379803706473e-01 5.7380320697657226e+01 -6.7251470343506270e-01 9.6763781128756818e+00 6.5096595840553618e+01 -1.2029810535370498e+03 1.1460501755162841e+02 3.6980623473882588e+00 2.4958055545535842e+00 -2.1726393929202281e+00 -4.9071138928143228e+01 -5.8345087074164059e-01 1.0033544079217518e+02 -1.4611129950690838e+01 -1.2337981909244445e+02 -1.5240155380412762e+02 -3.8761318101740301e+00 2.4321373762089493e+00 4.1368045325891529e+00 -3.6544459289132192e+02 -4.9919923277602578e+00 7.2384969413331419e+01 -2.5348788440261615e+01 1.1991181258634326e+03 -7.6178189746453427e+01 3.2395507730669806e+00 -9.4699482761758986e+00 -4.9186107517269591e+00 5.0245885476194184e+02 7.0228915988932386e+00 -1.6431127797123445e+01 3.6067343713139394e+01 4.2099925262958607e+01 6.6555230221167619e+01 -2.9647383076886058e+00 5.1949409850499183e+02 
      </Row>
      <Row Index="53">
        -5.7771488057079168e-01 -6.7075741650307563e-01 -3.5891613574070334e+01 1.9012400754554175e+00 1.6211922878728274e+01 -2.2887093237568706e+01 -1.0391232166638338e+02 2.2371583879465106e+01 2.8792865494283788e+00 -1.7138188630286777e-01 3.6914375314438530e-03 3.0072170306253611e+01 2.1945357998218729e-03 3.6585459347825235e+00 2.1084290618572368e+00 3.8443593298465203e+01 4.4871066493287799e+00 -8.8824597811725994e+00 -1.4183971066563146e+00 -1.1716827280039155e-01 1.6142535071450652e+01 7.0723628009273121e-02 -1.1188488592551494e+01 2.1573270749754556e+00 -1.9228025283834995e+01 -5.3453524457581807e+00 -4.3846080656159074e+00 -2.6065230864067956e-01 3.1929039039957452e-01 -2.2243693225208062e+01 8.5194445370572525e-02 -1.5410934081981850e+01 -1.1277794630872506e+01 2.5994582077252289e+01 1.2210078708441870e+01 1.8964558590057266e+00 -4.1587055236730919e-01 -3.4553264538107875e-01 8.9698722253581309e-01 1.7829285985328269e+00 -1.2681208964149448e+01 -4.4858570223337892e+00 -5.3758246487558665e+01 6.3996309603098780e+00 2.6656372759801741e+00 2.1432753590898841e+00 5.8438351384093323e-01 1.6344786028404255e+02 -3.0347951502068042e+00 2.7841567566253946e+00 8.0059217192361132e-01 8.1317015099162120e+00 -2.9647383092320645e+00 3.8668936009835875e+00 1.4180974545588373e+02 
      </Row>
      <Row Index="54">
        8.3402881164518476e+01 3.8913531113241334e+01 -1.5748948138653301e+04 3.0609207716583842e+02 -3.5703184184855781e+03 -1.9959513807382900e+03 -1.8973485103877261e+04 1.9431564815081656e+03 -2.0865894487283367e+02 -5.1960367037478136e+01 1.4212551302834981e+01 1.2652191520410590e+04 3.8849157765571363e+01 2.0501668525114655e+02 -4.4493202137760818e+02 3.5509332199543715e+03 -1.7009897935539484e+03 -2.9965986136882566e+02 -7.9658121899701655e+00 -2.7390623925894033e+00 7.3897889474667609e+03 -1.1530607961321948e+01 1.3282803712654859e+03 1.0661896968781948e+03 -1.3900610835529398e+04 -1.3474946796894073e+01 -1.4241668587643653e+02 -3.5107483955216594e+01 8.4522616189969995e+00 -1.0321760015819338e+04 -2.3286334062328933e+01 1.5765191792892292e+03 -5.1535898892779369e+02 -4.7074383940119296e+03 -3.4723228149116039e+02 1.1126143980945926e+01 4.9726319888824946e+01 3.2438614317386964e+01 -1.2511898971038731e+05 2.6499112733249058e+02 -1.2865191329881782e+03 1.5736428519501351e+03 1.1805116184418905e+04 1.8719587947800756e+03 -3.0806807614141144e+02 8.2808377930196002e+00 2.1802623702038545e+01 3.8265019422184891e+05 -5.3854289364223951e+02 -1.3876482207301779e+03 1.6384624467756366e+03 -5.5481233578993124e+02 5.1949409726969316e+02 1.4180974622000940e+02 3.8228513211669598e+05 
      </Row>
    </InverseHessian>
  </Weights>
</MethodSetup>
